{"learner":{"attributes":{"scikit_learn":"{\"_estimator_type\": \"regressor\"}"},"feature_names":["pos_hr","chrom_hr","green_hr","sq"],"feature_types":["float","float","float","float"],"gradient_booster":{"model":{"cats":{"enc":[],"feature_segments":[],"sorted_idx":[]},"gbtree_model_param":{"num_parallel_tree":"1","num_trees":"100"},"iteration_indptr":[0,1,2,3,4,5,6,7,8,9,10,11,12,13,14,15,16,17,18,19,20,21,22,23,24,25,26,27,28,29,30,31,32,33,34,35,36,37,38,39,40,41,42,43,44,45,46,47,48,49,50,51,52,53,54,55,56,57,58,59,60,61,62,63,64,65,66,67,68,69,70,71,72,73,74,75,76,77,78,79,80,81,82,83,84,85,86,87,88,89,90,91,92,93,94,95,96,97,98,99,100],"tree_info":[0,0,0,0,0,0,0,0,0,0,0,0,0,0,0,0,0,0,0,0,0,0,0,0,0,0,0,0,0,0,0,0,0,0,0,0,0,0,0,0,0,0,0,0,0,0,0,0,0,0,0,0,0,0,0,0,0,0,0,0,0,0,0,0,0,0,0,0,0,0,0,0,0,0,0,0,0,0,0,0,0,0,0,0,0,0,0,0,0,0,0,0,0,0,0,0,0,0,0,0],"trees":[{"base_weights":[2.1995768E-6,-1.4813027E1,1.4578021E1,-2.2124006E1,-7.368252E0,7.334692E0,2.214449E1,-2.5430162E1,-1.7816256E1,-1.15571785E1,-4.207889E0,3.5546668E0,1.0880665E1,1.900277E1,2.5769215E1,-1.3408015E0,-2.3141281E1,-1.9384321E1,-1.5607865E1,-1.3849169E1,-1.0081502E1,-6.7746563E0,-2.3616943E0,1.1867498E0,5.5924735E0,8.055189E0,1.2558496E1,1.6564209E1,2.0682377E1,1.1568011E0,1.3265941E0,-1.1598252E0,-2.7618217E-1,-1.0294745E0,-8.8206905E-1,-8.222286E-1,-6.650389E-1,-7.318562E-1,-5.763412E-1,-5.5365574E-1,-4.2004982E-1,-4.2903844E-1,-2.817537E-1,-1.8717316E-1,-8.131978E-3,-7.6633515E-3,1.3830732E-1,1.6407059E-1,3.2023075E-1,3.393589E-1,4.852901E-1,5.297127E-1,6.854249E-1,5.821928E-1,8.407273E-1,9.3060035E-1,1.0917531E0],"categories":[],"categories_nodes":[],"categories_segments":[],"categories_sizes":[],"default_left":[0,0,0,0,0,0,0,0,0,0,0,0,0,0,0,0,0,0,0,0,0,0,0,0,0,0,0,0,0,0,0,0,0,0,0,0,0,0,0,0,0,0,0,0,0,0,0,0,0,0,0,0,0,0,0,0,0],"id":0,"left_children":[1,3,5,7,9,11,13,15,17,19,21,23,25,27,29,-1,31,33,35,37,39,41,43,45,47,49,51,53,55,-1,-1,-1,-1,-1,-1,-1,-1,-1,-1,-1,-1,-1,-1,-1,-1,-1,-1,-1,-1,-1,-1,-1,-1,-1,-1,-1,-1],"loss_changes":[8.642104E5,1.0787775E5,1.10382125E5,1.380325E4,1.29913125E4,1.3794109E4,1.0738719E4,1.1685E3,1.2142031E3,1.2910703E3,2.651917E3,2.4108672E3,2.420879E3,1.8363906E3,2.999375E2,0E0,8.590625E1,1.6610938E2,1.4225E2,1.2955273E2,3.419082E2,4.3532812E2,9.990856E2,4.9354926E2,4.8387207E2,3.5481836E2,6.0471875E2,7.766406E1,3.358125E2,0E0,0E0,0E0,0E0,0E0,0E0,0E0,0E0,0E0,0E0,0E0,0E0,0E0,0E0,0E0,0E0,0E0,0E0,0E0,0E0,0E0,0E0,0E0,0E0,0E0,0E0,0E0,0E0],"parents":[2147483647,0,0,1,1,2,2,3,3,4,4,5,5,6,6,7,7,8,8,9,9,10,10,11,11,12,12,13,13,14,14,16,16,17,17,18,18,19,19,20,20,21,21,22,22,23,23,24,24,25,25,26,26,27,27,28,28],"right_children":[2,4,6,8,10,12,14,16,18,20,22,24,26,28,30,-1,32,34,36,38,40,42,44,46,48,50,52,54,56,-1,-1,-1,-1,-1,-1,-1,-1,-1,-1,-1,-1,-1,-1,-1,-1,-1,-1,-1,-1,-1,-1,-1,-1,-1,-1,-1,-1],"split_conditions":[8.020727E1,6.553365E1,9.5081055E1,5.8714386E1,7.152758E1,8.7424934E1,1.0342963E2,5.5171474E1,6.363725E1,6.750708E1,7.511856E1,8.3500656E1,8.919786E1,9.776572E1,1.0282932E2,-1.3408015E0,6.83816E1,6.1754723E1,6.880487E1,6.907972E1,7.253617E1,7.177018E1,7.897969E1,8.329043E1,8.301951E1,9.072564E1,9.143236E1,8.780549E1,9.883683E1,1.1568011E0,1.3265941E0,-1.1598252E0,-2.7618217E-1,-1.0294745E0,-8.8206905E-1,-8.222286E-1,-6.650389E-1,-7.318562E-1,-5.763412E-1,-5.5365574E-1,-4.2004982E-1,-4.2903844E-1,-2.817537E-1,-1.8717316E-1,-8.131978E-3,-7.6633515E-3,1.3830732E-1,1.6407059E-1,3.2023075E-1,3.393589E-1,4.852901E-1,5.297127E-1,6.854249E-1,5.821928E-1,8.407273E-1,9.3060035E-1,1.0917531E0],"split_indices":[0,0,0,0,0,0,0,0,1,1,0,1,1,1,1,0,1,0,1,0,1,1,1,0,0,0,0,1,0,0,0,0,0,0,0,0,0,0,0,0,0,0,0,0,0,0,0,0,0,0,0,0,0,0,0,0,0],"split_type":[0,0,0,0,0,0,0,0,0,0,0,0,0,0,0,0,0,0,0,0,0,0,0,0,0,0,0,0,0,0,0,0,0,0,0,0,0,0,0,0,0,0,0,0,0,0,0,0,0,0,0,0,0,0,0,0,0],"sum_hessian":[4E3,1.984E3,2.016E3,1E3,9.84E2,1.031E3,9.85E2,5.63E2,4.37E2,4.22E2,5.62E2,5E2,5.31E2,5.31E2,4.54E2,3.44E2,2.19E2,2.51E2,1.86E2,1.62E2,2.6E2,2.34E2,3.28E2,2.32E2,2.68E2,2E2,3.31E2,2.21E2,3.1E2,1.09E2,3.45E2,2.18E2,1E0,1.42E2,1.09E2,1.32E2,5.4E1,1.17E2,4.5E1,1.6E2,1E2,8.8E1,1.46E2,2.01E2,1.27E2,1.26E2,1.06E2,7.1E1,1.97E2,1.16E2,8.4E1,1.26E2,2.05E2,1.3E1,2.08E2,1.17E2,1.93E2],"tree_param":{"num_deleted":"0","num_feature":"4","num_nodes":"57","size_leaf_vector":"1"}},{"base_weights":[-1.918666E-4,-1.4077092E1,1.3853376E1,-2.1137218E1,-7.1157513E0,6.9705305E0,2.1043278E1,-2.4163574E1,-1.7042429E1,-1.1096518E1,-3.9991043E0,3.3781614E0,1.0340467E1,1.7066212E1,2.3617086E1,-1.2739555E0,-2.1990742E1,-1.8476336E1,-1.4933242E1,-1.3282463E1,-9.624897E0,-6.438948E0,-2.2442036E0,1.127972E0,5.314652E0,7.656534E0,1.1934234E1,1.4905362E1,9.19635E-1,1.0670892E0,1.2514454E0,-1.1682663E0,-1.0101236E0,-9.7836083E-1,-8.4073466E-1,-7.827961E-1,-6.3083047E-1,-7.003295E-1,-5.4815066E-1,-5.2805275E-1,-4.0204343E-1,-3.845278E-1,-2.4733758E-1,-1.8365826E-1,-1.564354E-2,-1.2356452E-1,8.46284E-2,1.5598102E-1,3.043002E-1,3.2253614E-1,4.6131107E-1,5.335683E-1,6.826926E-1,1.9012375E-1,7.476539E-1],"categories":[],"categories_nodes":[],"categories_segments":[],"categories_sizes":[],"default_left":[0,0,0,0,0,0,0,0,0,0,0,0,0,0,0,0,0,0,0,0,0,0,0,0,0,0,0,0,0,0,0,0,0,0,0,0,0,0,0,0,0,0,0,0,0,0,0,0,0,0,0,0,0,0,0],"id":1,"left_children":[1,3,5,7,9,11,13,15,17,19,21,23,25,27,29,-1,31,33,35,37,39,41,43,45,47,49,51,53,-1,-1,-1,-1,-1,-1,-1,-1,-1,-1,-1,-1,-1,-1,-1,-1,-1,-1,-1,-1,-1,-1,-1,-1,-1,-1,-1],"loss_changes":[7.8045125E5,9.740831E4,9.966853E4,1.1794594E4,1.2374672E4,1.245852E4,9.689906E3,1.0518438E3,1.0003672E3,1.2843711E3,2.3961377E3,2.1770977E3,2.1842852E3,8.4658594E2,1.380375E3,0E0,6.875E1,1.1871094E2,9.713281E1,1.386914E2,3.0953125E2,4.0085352E2,9.068248E2,4.77669E2,4.3646924E2,3.2092578E2,5.7528125E2,2.4726562E1,0E0,0E0,0E0,0E0,0E0,0E0,0E0,0E0,0E0,0E0,0E0,0E0,0E0,0E0,0E0,0E0,0E0,0E0,0E0,0E0,0E0,0E0,0E0,0E0,0E0,0E0,0E0],"parents":[2147483647,0,0,1,1,2,2,3,3,4,4,5,5,6,6,7,7,8,8,9,9,10,10,11,11,12,12,13,13,14,14,16,16,17,17,18,18,19,19,20,20,21,21,22,22,23,23,24,24,25,25,26,26,27,27],"right_children":[2,4,6,8,10,12,14,16,18,20,22,24,26,28,30,-1,32,34,36,38,40,42,44,46,48,50,52,54,-1,-1,-1,-1,-1,-1,-1,-1,-1,-1,-1,-1,-1,-1,-1,-1,-1,-1,-1,-1,-1,-1,-1,-1,-1,-1,-1],"split_conditions":[8.020727E1,6.522118E1,9.5081055E1,5.8714386E1,7.152758E1,8.7424934E1,1.0101813E2,5.5171474E1,6.363725E1,6.750708E1,7.511856E1,8.3500656E1,8.919786E1,9.674374E1,1.0473513E2,-1.2739555E0,5.6617947E1,6.1754723E1,6.920382E1,6.907972E1,7.253617E1,7.3749695E1,7.847436E1,7.45374E1,8.301951E1,9.072564E1,9.493208E1,8.024588E1,9.19635E-1,1.0670892E0,1.2514454E0,-1.1682663E0,-1.0101236E0,-9.7836083E-1,-8.4073466E-1,-7.827961E-1,-6.3083047E-1,-7.003295E-1,-5.4815066E-1,-5.2805275E-1,-4.0204343E-1,-3.845278E-1,-2.4733758E-1,-1.8365826E-1,-1.564354E-2,-1.2356452E-1,8.46284E-2,1.5598102E-1,3.043002E-1,3.2253614E-1,4.6131107E-1,5.335683E-1,6.826926E-1,1.9012375E-1,7.476539E-1],"split_indices":[0,0,0,0,0,0,0,0,1,1,0,1,1,1,0,0,1,0,1,0,1,1,1,1,0,0,1,1,0,0,0,0,0,0,0,0,0,0,0,0,0,0,0,0,0,0,0,0,0,0,0,0,0,0,0],"split_type":[0,0,0,0,0,0,0,0,0,0,0,0,0,0,0,0,0,0,0,0,0,0,0,0,0,0,0,0,0,0,0,0,0,0,0,0,0,0,0,0,0,0,0,0,0,0,0,0,0,0,0,0,0,0,0],"sum_hessian":[4E3,1.984E3,2.016E3,9.84E2,1E3,1.031E3,9.85E2,5.63E2,4.21E2,4.38E2,5.62E2,5E2,5.31E2,3.9E2,5.95E2,3.44E2,2.19E2,2.46E2,1.75E2,1.73E2,2.65E2,2.34E2,3.28E2,2.32E2,2.68E2,2E2,3.31E2,1.53E2,2.37E2,2.34E2,3.61E2,1.17E2,1.02E2,1.42E2,1.04E2,1.29E2,4.6E1,1.28E2,4.5E1,1.63E2,1.02E2,1.25E2,1.09E2,1.88E2,1.4E2,3.1E1,2.01E2,7.1E1,1.97E2,1.16E2,8.4E1,1.95E2,1.36E2,1E0,1.52E2],"tree_param":{"num_deleted":"0","num_feature":"4","num_nodes":"55","size_leaf_vector":"1"}},{"base_weights":[-9.555669E-4,-1.2766815E1,1.3800512E1,-1.9669386E1,-5.744856E0,7.2739534E0,1.9995352E1,-2.268271E1,-1.542096E1,-8.795433E0,-1.841709E0,4.373441E0,1.0356497E1,1.715263E1,2.3275204E1,-1.2104423E0,-2.0625784E1,-1.6837183E1,-1.3430004E1,-1.1336103E1,-7.2411184E0,-3.4047096E0,2.3308124E-1,2.56445E0,6.4181776E0,9.163647E0,6.5683544E-1,1.4928694E1,1.868498E1,1.0785775E0,1.2186502E0,-1.0961126E0,-9.556244E-1,-8.9040196E-1,-7.7000576E-1,-6.8931717E-1,-4.8826247E-1,-6.50129E-1,-5.086649E-1,-4.524252E-1,-3.0302835E-1,-2.1276486E-1,-1.01597786E-1,-3.092133E-2,9.994896E-2,-1.10676765E-1,1.4546202E-1,2.6408866E-1,3.904297E-1,3.4328485E-1,5.0284296E-1,6.9764733E-1,8.212223E-1,8.388726E-1,9.874458E-1],"categories":[],"categories_nodes":[],"categories_segments":[],"categories_sizes":[],"default_left":[0,0,0,0,0,0,0,0,0,0,0,0,0,0,0,0,0,0,0,0,0,0,0,0,0,0,0,0,0,0,0,0,0,0,0,0,0,0,0,0,0,0,0,0,0,0,0,0,0,0,0,0,0,0,0],"id":2,"left_children":[1,3,5,7,9,11,13,15,17,19,21,23,25,27,29,-1,31,33,35,37,39,41,43,45,47,49,-1,51,53,-1,-1,-1,-1,-1,-1,-1,-1,-1,-1,-1,-1,-1,-1,-1,-1,-1,-1,-1,-1,-1,-1,-1,-1,-1,-1],"loss_changes":[7.0510275E5,1.0065522E5,7.760331E4,1.30665625E4,1.2271672E4,8.34132E3,8.793969E3,1.4187188E3,1.008875E3,2.2043828E3,1.4730695E3,1.7775127E3,1.3852578E3,1.5340312E3,3.2523438E2,0E0,1.0485156E2,7.734375E1,1.0957422E2,2.901582E2,7.175664E2,2.9377417E2,2.959567E2,4.3311743E2,3.174336E2,5.898242E2,0E0,9.483203E1,2.9983594E2,0E0,0E0,0E0,0E0,0E0,0E0,0E0,0E0,0E0,0E0,0E0,0E0,0E0,0E0,0E0,0E0,0E0,0E0,0E0,0E0,0E0,0E0,0E0,0E0,0E0,0E0],"parents":[2147483647,0,0,1,1,2,2,3,3,4,4,5,5,6,6,7,7,8,8,9,9,10,10,11,11,12,12,13,13,14,14,16,16,17,17,18,18,19,19,20,20,21,21,22,22,23,23,24,24,25,25,27,27,28,28],"right_children":[2,4,6,8,10,12,14,16,18,20,22,24,26,28,30,-1,32,34,36,38,40,42,44,46,48,50,-1,52,54,-1,-1,-1,-1,-1,-1,-1,-1,-1,-1,-1,-1,-1,-1,-1,-1,-1,-1,-1,-1,-1,-1,-1,-1,-1,-1],"split_conditions":[8.17469E1,6.6153206E1,9.5081055E1,5.945712E1,7.46088E1,8.837881E1,1.0342963E2,5.5171474E1,6.46681E1,6.880487E1,7.897969E1,8.531459E1,9.467334E1,9.776572E1,1.0506462E2,-1.2104423E0,5.6617947E1,6.2873997E1,7.2880295E1,6.488734E1,7.049724E1,7.8241745E1,8.460485E1,7.45374E1,8.643589E1,8.7059586E1,6.5683544E-1,9.905894E1,9.883683E1,1.0785775E0,1.2186502E0,-1.0961126E0,-9.556244E-1,-8.9040196E-1,-7.7000576E-1,-6.8931717E-1,-4.8826247E-1,-6.50129E-1,-5.086649E-1,-4.524252E-1,-3.0302835E-1,-2.1276486E-1,-1.01597786E-1,-3.092133E-2,9.994896E-2,-1.10676765E-1,1.4546202E-1,2.6408866E-1,3.904297E-1,3.4328485E-1,5.0284296E-1,6.9764733E-1,8.212223E-1,8.388726E-1,9.874458E-1],"split_indices":[0,0,0,0,0,0,0,0,1,1,1,1,1,1,1,0,1,0,1,1,0,0,1,1,0,1,0,0,0,0,0,0,0,0,0,0,0,0,0,0,0,0,0,0,0,0,0,0,0,0,0,0,0,0,0],"split_type":[0,0,0,0,0,0,0,0,0,0,0,0,0,0,0,0,0,0,0,0,0,0,0,0,0,0,0,0,0,0,0,0,0,0,0,0,0,0,0,0,0,0,0,0,0,0,0,0,0,0,0,0,0,0,0],"sum_hessian":[4E3,2.078E3,1.922E3,1.047E3,1.031E3,9.37E2,9.85E2,6.1E2,4.37E2,5.78E2,4.53E2,4.84E2,4.53E2,5.31E2,4.54E2,3.44E2,2.66E2,2.51E2,1.86E2,2.17E2,3.61E2,2.58E2,1.95E2,2.58E2,2.26E2,3.2E2,1.33E2,2.21E2,3.1E2,1.86E2,2.68E2,1.36E2,1.3E2,1.43E2,1.08E2,1.67E2,1.9E1,8.5E1,1.32E2,1.4E2,2.21E2,1.58E2,1E2,1.32E2,6.3E1,1.7E1,2.41E2,1.27E2,9.9E1,9.2E1,2.28E2,1.4E2,8.1E1,1.17E2,1.93E2],"tree_param":{"num_deleted":"0","num_feature":"4","num_nodes":"55","size_leaf_vector":"1"}},{"base_weights":[-1.0134977E-3,-1.2132446E1,1.3114561E1,-1.8794668E1,-5.56036E0,6.912592E0,1.9001307E1,-2.1553913E1,-1.4755113E1,-8.733522E0,-2.0784173E0,4.1561904E0,9.84198E0,1.6379604E1,2.2217377E1,-1.1500957E0,-1.9602177E1,-1.6073606E1,-1.2857436E1,-1.0950589E1,-7.213079E0,-3.5942953E0,1.4614154E-1,2.436362E0,6.100152E0,8.52037E0,1.2105164E1,1.4854716E1,9.264261E-1,9.9099934E-1,1.1436589E0,-1.0417069E0,-9.082077E-1,-8.642187E-1,-7.5210357E-1,-6.570904E-1,-4.2937618E-1,-6.241562E-1,-4.8908955E-1,-4.3415123E-1,-2.9856417E-1,-2.2122033E-1,-9.6568055E-2,-4.141196E-2,8.333923E-2,-1.0545023E-1,1.3821898E-1,2.5098726E-1,3.7110358E-1,3.2630518E-1,4.707019E-1,4.508678E-1,6.1769146E-1,6.841182E-1,8.2118255E-1],"categories":[],"categories_nodes":[],"categories_segments":[],"categories_sizes":[],"default_left":[0,0,0,0,0,0,0,0,0,0,0,0,0,0,0,0,0,0,0,0,0,0,0,0,0,0,0,0,0,0,0,0,0,0,0,0,0,0,0,0,0,0,0,0,0,0,0,0,0,0,0,0,0,0,0],"id":3,"left_children":[1,3,5,7,9,11,13,15,17,19,21,23,25,27,29,-1,31,33,35,37,39,41,43,45,47,49,51,53,-1,-1,-1,-1,-1,-1,-1,-1,-1,-1,-1,-1,-1,-1,-1,-1,-1,-1,-1,-1,-1,-1,-1,-1,-1,-1,-1],"loss_changes":[6.3676106E5,9.0923875E4,7.007625E4,1.11848125E4,1.1560961E4,7.533039E3,7.9496562E3,1.2758438E3,8.4921094E2,1.7682812E3,1.689977E3,1.6066289E3,1.254793E3,1.5172188E3,2.3842188E2,0E0,9.4578125E1,4.6003906E1,1.032793E2,2.737539E2,5.468711E2,4.0282007E2,3.0364426E2,3.9198877E2,2.8694727E2,4.5540625E2,1.5294922E1,3.730703E2,0E0,0E0,0E0,0E0,0E0,0E0,0E0,0E0,0E0,0E0,0E0,0E0,0E0,0E0,0E0,0E0,0E0,0E0,0E0,0E0,0E0,0E0,0E0,0E0,0E0,0E0,0E0],"parents":[2147483647,0,0,1,1,2,2,3,3,4,4,5,5,6,6,7,7,8,8,9,9,10,10,11,11,12,12,13,13,14,14,16,16,17,17,18,18,19,19,20,20,21,21,22,22,23,23,24,24,25,25,26,26,27,27],"right_children":[2,4,6,8,10,12,14,16,18,20,22,24,26,28,30,-1,32,34,36,38,40,42,44,46,48,50,52,54,-1,-1,-1,-1,-1,-1,-1,-1,-1,-1,-1,-1,-1,-1,-1,-1,-1,-1,-1,-1,-1,-1,-1,-1,-1,-1,-1],"split_conditions":[8.17469E1,6.596015E1,9.5081055E1,5.945712E1,7.3864456E1,8.837881E1,1.0371607E2,5.5171474E1,6.46681E1,6.880487E1,7.897969E1,8.531459E1,9.34853E1,1.0090834E2,1.0282932E2,-1.1500957E0,5.6617947E1,6.1754723E1,7.3252174E1,6.488734E1,7.049724E1,7.8241745E1,8.3500656E1,7.45374E1,8.643589E1,8.7059586E1,8.995989E1,9.905894E1,9.264261E-1,9.9099934E-1,1.1436589E0,-1.0417069E0,-9.082077E-1,-8.642187E-1,-7.5210357E-1,-6.570904E-1,-4.2937618E-1,-6.241562E-1,-4.8908955E-1,-4.3415123E-1,-2.9856417E-1,-2.2122033E-1,-9.6568055E-2,-4.141196E-2,8.333923E-2,-1.0545023E-1,1.3821898E-1,2.5098726E-1,3.7110358E-1,3.2630518E-1,4.707019E-1,4.508678E-1,6.1769146E-1,6.841182E-1,8.2118255E-1],"split_indices":[0,0,0,0,0,0,0,0,1,1,1,1,1,1,1,0,1,0,1,1,0,0,1,1,0,1,0,0,0,0,0,0,0,0,0,0,0,0,0,0,0,0,0,0,0,0,0,0,0,0,0,0,0,0,0],"split_type":[0,0,0,0,0,0,0,0,0,0,0,0,0,0,0,0,0,0,0,0,0,0,0,0,0,0,0,0,0,0,0,0,0,0,0,0,0,0,0,0,0,0,0,0,0,0,0,0,0,0,0,0,0,0,0],"sum_hessian":[4E3,2.078E3,1.922E3,1.031E3,1.047E3,9.37E2,9.85E2,6.1E2,4.21E2,5.47E2,5E2,4.84E2,4.53E2,5.46E2,4.39E2,3.44E2,2.66E2,2.44E2,1.77E2,2.2E2,3.27E2,2.97E2,2.03E2,2.58E2,2.26E2,2.89E2,1.64E2,3.24E2,2.22E2,1.01E2,3.38E2,1.36E2,1.3E2,1.05E2,1.39E2,1.64E2,1.3E1,9.1E1,1.29E2,1.47E2,1.8E2,1.97E2,1E2,1.24E2,7.9E1,1.7E1,2.41E2,1.27E2,9.9E1,9.2E1,1.97E2,1.5E1,1.49E2,1.91E2,1.33E2],"tree_param":{"num_deleted":"0","num_feature":"4","num_nodes":"55","size_leaf_vector":"1"}},{"base_weights":[-1.1727425E-3,-1.1443437E1,1.2556533E1,-1.7763885E1,-5.106022E0,6.7589493E0,1.8144152E1,-2.048129E1,-1.39326105E1,-7.868134E0,-1.4809104E0,4.471662E0,9.947375E0,1.5655965E1,2.1111357E1,-1.0927576E0,-1.8629368E1,-1.4800013E1,-1.1243955E1,-9.365994E0,-5.6353097E0,-2.8703127E0,2.8221926E-1,2.4039798E0,6.0048904E0,8.778872E0,6.0740453E-1,1.4209733E1,8.844925E-1,9.4193524E-1,1.0866445E0,-9.84672E-1,-8.5702467E-1,-8.073842E-1,-6.934082E-1,-5.782834E-1,-4.094409E-1,-5.156446E-1,-3.7168017E-1,-3.7275168E-1,-2.4309805E-1,-1.9583593E-1,-9.811715E-2,-2.3719162E-2,9.362813E-2,-9.233428E-2,1.3614815E-1,2.3509538E-1,3.5618362E-1,3.4164733E-1,4.7529292E-1,6.55389E-1,7.804298E-1],"categories":[],"categories_nodes":[],"categories_segments":[],"categories_sizes":[],"default_left":[0,0,0,0,0,0,0,0,0,0,0,0,0,0,0,0,0,0,0,0,0,0,0,0,0,0,0,0,0,0,0,0,0,0,0,0,0,0,0,0,0,0,0,0,0,0,0,0,0,0,0,0,0],"id":4,"left_children":[1,3,5,7,9,11,13,15,17,19,21,23,25,27,29,-1,31,33,35,37,39,41,43,45,47,49,-1,51,-1,-1,-1,-1,-1,-1,-1,-1,-1,-1,-1,-1,-1,-1,-1,-1,-1,-1,-1,-1,-1,-1,-1,-1,-1],"loss_changes":[5.7504175E5,8.378506E4,6.1686438E4,1.0625531E4,1.0471922E4,6.796207E3,6.8383125E3,1.1474219E3,8.550703E2,1.9338281E3,1.1129722E3,1.7228496E3,8.988242E2,1.3135078E3,2.1209375E2,0E0,8.5453125E1,1.8797656E2,1.4390625E1,5.710762E2,3.0290918E2,2.3364087E2,2.4274313E2,3.2366284E2,4.2424023E2,3.0144727E2,0E0,2.8251172E2,0E0,0E0,0E0,0E0,0E0,0E0,0E0,0E0,0E0,0E0,0E0,0E0,0E0,0E0,0E0,0E0,0E0,0E0,0E0,0E0,0E0,0E0,0E0,0E0,0E0],"parents":[2147483647,0,0,1,1,2,2,3,3,4,4,5,5,6,6,7,7,8,8,9,9,10,10,11,11,12,12,13,13,14,14,16,16,17,17,18,18,19,19,20,20,21,21,22,22,23,23,24,24,25,25,27,27],"right_children":[2,4,6,8,10,12,14,16,18,20,22,24,26,28,30,-1,32,34,36,38,40,42,44,46,48,50,-1,52,-1,-1,-1,-1,-1,-1,-1,-1,-1,-1,-1,-1,-1,-1,-1,-1,-1,-1,-1,-1,-1,-1,-1,-1,-1],"split_conditions":[8.193583E1,6.6153206E1,9.538407E1,5.945712E1,7.483549E1,8.9797646E1,1.0371607E2,5.5171474E1,6.715682E1,7.195608E1,7.897969E1,8.431756E1,9.467334E1,1.0090834E2,1.0282932E2,-1.0927576E0,5.7303246E1,6.1754723E1,7.3252174E1,7.0748695E1,7.049724E1,7.4812485E1,8.460485E1,7.45374E1,8.643589E1,8.756228E1,6.0740453E-1,9.905894E1,8.844925E-1,9.4193524E-1,1.0866445E0,-9.84672E-1,-8.5702467E-1,-8.073842E-1,-6.934082E-1,-5.782834E-1,-4.094409E-1,-5.156446E-1,-3.7168017E-1,-3.7275168E-1,-2.4309805E-1,-1.9583593E-1,-9.811715E-2,-2.3719162E-2,9.362813E-2,-9.233428E-2,1.3614815E-1,2.3509538E-1,3.5618362E-1,3.4164733E-1,4.7529292E-1,6.55389E-1,7.804298E-1],"split_indices":[0,0,0,0,0,0,0,0,1,1,1,1,1,1,1,0,1,0,1,0,0,1,1,1,0,1,0,0,0,0,0,0,0,0,0,0,0,0,0,0,0,0,0,0,0,0,0,0,0,0,0,0,0],"split_type":[0,0,0,0,0,0,0,0,0,0,0,0,0,0,0,0,0,0,0,0,0,0,0,0,0,0,0,0,0,0,0,0,0,0,0,0,0,0,0,0,0,0,0,0,0,0,0,0,0,0,0,0,0],"sum_hessian":[4E3,2.093E3,1.907E3,1.047E3,1.046E3,9.37E2,9.7E2,6.1E2,4.37E2,5.93E2,4.53E2,5.47E2,3.9E2,5.31E2,4.39E2,3.44E2,2.66E2,3.27E2,1.1E2,3.53E2,2.4E2,2.53E2,2E2,2.34E2,3.13E2,2.58E2,1.32E2,3.15E2,2.16E2,1.01E2,3.38E2,1.48E2,1.18E2,1.27E2,2E2,9.7E1,1.3E1,2.34E2,1.19E2,6.9E1,1.71E2,1.16E2,1.37E2,1.36E2,6.4E1,1.6E1,2.18E2,1.47E2,1.66E2,7.3E1,1.85E2,1.82E2,1.33E2],"tree_param":{"num_deleted":"0","num_feature":"4","num_nodes":"53","size_leaf_vector":"1"}},{"base_weights":[-1.2995456E-3,-1.148569E1,1.130089E1,-1.7243074E1,-5.808857E0,5.693225E0,1.7158709E1,-1.971294E1,-1.3901258E1,-9.065732E0,-3.2589862E0,2.6612906E0,8.366208E0,1.3877409E1,1.9282585E1,-1.0606381E0,-1.8212372E1,-1.5272182E1,-1.2361387E1,-1.0895985E1,-7.834418E0,-4.924893E0,-1.4458145E0,8.443447E-1,4.256649E0,6.191259E0,9.7733755E0,1.2053955E1,1.4998982E1,1.7941383E1,1.0521117E0,-9.1255826E-1,-1.7600289E-1,-8.451678E-1,-7.26018E-1,-6.630308E-1,-5.245074E-1,-5.7437783E-1,-4.3484002E-1,-4.304491E-1,-3.262534E-1,-2.9719123E-1,-1.8357526E-1,-1.49514E-1,-2.0995585E-2,-2.281994E-2,9.891199E-2,1.6714506E-1,2.767696E-1,2.6112947E-1,3.8825747E-1,4.097829E-1,5.36391E-1,3.3439156E-1,6.1131567E-1,6.878377E-1,7.9302186E-1,8.491418E-1,9.8436415E-1],"categories":[],"categories_nodes":[],"categories_segments":[],"categories_sizes":[],"default_left":[0,0,0,0,0,0,0,0,0,0,0,0,0,0,0,0,0,0,0,0,0,0,0,0,0,0,0,0,0,0,0,0,0,0,0,0,0,0,0,0,0,0,0,0,0,0,0,0,0,0,0,0,0,0,0,0,0,0,0],"id":5,"left_children":[1,3,5,7,9,11,13,15,17,19,21,23,25,27,29,-1,31,33,35,37,39,41,43,45,47,49,51,53,55,57,-1,-1,-1,-1,-1,-1,-1,-1,-1,-1,-1,-1,-1,-1,-1,-1,-1,-1,-1,-1,-1,-1,-1,-1,-1,-1,-1,-1,-1],"loss_changes":[5.1945462E5,6.4777016E4,6.6158125E4,7.856E3,8.283371E3,8.341383E3,6.6039062E3,8.829844E2,7.020703E2,9.0397266E2,1.6934624E3,1.4022661E3,1.6166562E3,6.1885156E2,1.0290625E3,0E0,1.0046875E2,2.3128906E1,2.0416016E2,1.264668E2,2.1359668E2,3.5237256E2,4.281361E2,3.3718158E2,2.8295508E2,2.918047E2,4.1050977E2,6.066797E1,3.65E1,2.4303125E2,0E0,0E0,0E0,0E0,0E0,0E0,0E0,0E0,0E0,0E0,0E0,0E0,0E0,0E0,0E0,0E0,0E0,0E0,0E0,0E0,0E0,0E0,0E0,0E0,0E0,0E0,0E0,0E0,0E0],"parents":[2147483647,0,0,1,1,2,2,3,3,4,4,5,5,6,6,7,7,8,8,9,9,10,10,11,11,12,12,13,13,14,14,16,16,17,17,18,18,19,19,20,20,21,21,22,22,23,23,24,24,25,25,26,26,27,27,28,28,29,29],"right_children":[2,4,6,8,10,12,14,16,18,20,22,24,26,28,30,-1,32,34,36,38,40,42,44,46,48,50,52,54,56,58,-1,-1,-1,-1,-1,-1,-1,-1,-1,-1,-1,-1,-1,-1,-1,-1,-1,-1,-1,-1,-1,-1,-1,-1,-1,-1,-1,-1,-1],"split_conditions":[8.020727E1,6.522118E1,9.5081055E1,5.8714386E1,7.152758E1,8.7203476E1,1.0101813E2,5.4085842E1,6.2282444E1,6.750708E1,7.6217545E1,8.3500656E1,8.946696E1,9.674374E1,1.06382355E2,-1.0606381E0,6.83816E1,5.766749E1,6.6355934E1,6.9290825E1,7.253617E1,7.483549E1,7.635825E1,8.019555E1,8.7949196E1,9.091167E1,9.143236E1,8.687859E1,9.7212105E1,1.05687874E2,1.0521117E0,-9.1255826E-1,-1.7600289E-1,-8.451678E-1,-7.26018E-1,-6.630308E-1,-5.245074E-1,-5.7437783E-1,-4.3484002E-1,-4.304491E-1,-3.262534E-1,-2.9719123E-1,-1.8357526E-1,-1.49514E-1,-2.0995585E-2,-2.281994E-2,9.891199E-2,1.6714506E-1,2.767696E-1,2.6112947E-1,3.8825747E-1,4.097829E-1,5.36391E-1,3.3439156E-1,6.1131567E-1,6.878377E-1,7.9302186E-1,8.491418E-1,9.8436415E-1],"split_indices":[0,0,0,0,0,0,0,1,0,1,1,1,1,1,0,0,1,1,1,0,1,0,0,2,1,0,0,1,2,1,0,0,0,0,0,0,0,0,0,0,0,0,0,0,0,0,0,0,0,0,0,0,0,0,0,0,0,0,0],"split_type":[0,0,0,0,0,0,0,0,0,0,0,0,0,0,0,0,0,0,0,0,0,0,0,0,0,0,0,0,0,0,0,0,0,0,0,0,0,0,0,0,0,0,0,0,0,0,0,0,0,0,0,0,0,0,0,0,0,0,0],"sum_hessian":[4E3,1.984E3,2.016E3,9.84E2,1E3,1.031E3,9.85E2,5.63E2,4.21E2,4.38E2,5.62E2,4.84E2,5.47E2,3.9E2,5.95E2,2.75E2,2.88E2,2.18E2,2.03E2,1.73E2,2.65E2,2.92E2,2.7E2,2.27E2,2.57E2,2.17E2,3.3E2,1.53E2,2.37E2,3.44E2,2.51E2,2.87E2,1E0,6.2E1,1.56E2,1.33E2,7E1,1.33E2,4E1,1.63E2,1.02E2,1.59E2,1.33E2,1.07E2,1.63E2,1.06E2,1.21E2,1.52E2,1.05E2,1.37E2,8E1,1.28E2,2.02E2,6E0,1.47E2,1.04E2,1.33E2,2.29E2,1.15E2],"tree_param":{"num_deleted":"0","num_feature":"4","num_nodes":"59","size_leaf_vector":"1"}},{"base_weights":[-1.2087289E-3,-1.04161005E1,1.1258574E1,-1.613368E1,-4.775874E0,6.022463E0,1.6386024E1,-1.8731102E1,-1.2975728E1,-7.26301E0,-1.5057815E0,3.5727723E0,8.542884E0,1.3271664E1,1.8323298E1,-1.0077983E0,-1.730552E1,-1.4275623E1,-1.1332573E1,-8.479865E0,-4.975039E0,-2.7864902E0,1.9426619E-1,2.0877922E0,5.2513494E0,7.503569E0,5.441698E-1,1.1562798E1,1.4294274E1,1.7049625E1,9.9971503E-1,-8.6708874E-1,-1.7160283E-1,-7.589323E-1,-6.5196747E-1,-6.028125E-1,-4.8461553E-1,-5.401178E-1,-3.859473E-1,-3.2802746E-1,-2.1538341E-1,-1.8819654E-1,-9.510922E-2,-3.2061767E-2,7.1988575E-2,-9.7275436E-2,1.1895813E-1,2.1555336E-1,3.2011986E-1,2.817621E-1,4.1094851E-1,3.3315182E-1,5.880806E-1,6.6640705E-1,7.702925E-1,8.068692E-1,9.3557006E-1],"categories":[],"categories_nodes":[],"categories_segments":[],"categories_sizes":[],"default_left":[0,0,0,0,0,0,0,0,0,0,0,0,0,0,0,0,0,0,0,0,0,0,0,0,0,0,0,0,0,0,0,0,0,0,0,0,0,0,0,0,0,0,0,0,0,0,0,0,0,0,0,0,0,0,0,0,0],"id":6,"left_children":[1,3,5,7,9,11,13,15,17,19,21,23,25,27,29,-1,31,33,35,37,39,41,43,45,47,49,-1,51,53,55,-1,-1,-1,-1,-1,-1,-1,-1,-1,-1,-1,-1,-1,-1,-1,-1,-1,-1,-1,-1,-1,-1,-1,-1,-1,-1,-1],"loss_changes":[4.6931225E5,6.6967484E4,5.1529812E4,8.221969E3,8.512623E3,5.853543E3,5.615203E3,7.968125E2,8.3997656E2,1.6143672E3,9.8902E2,1.1979731E3,1.0591875E3,4.9177344E2,9.2759375E2,0E0,8.584375E1,9.010156E1,1.3479688E2,6.0053516E2,1.9288672E2,2.1670874E2,2.0488507E2,3.0900146E2,2.1808301E2,3.9208984E2,0E0,6.385742E1,4.275E1,2.2104688E2,0E0,0E0,0E0,0E0,0E0,0E0,0E0,0E0,0E0,0E0,0E0,0E0,0E0,0E0,0E0,0E0,0E0,0E0,0E0,0E0,0E0,0E0,0E0,0E0,0E0,0E0,0E0],"parents":[2147483647,0,0,1,1,2,2,3,3,4,4,5,5,6,6,7,7,8,8,9,9,10,10,11,11,12,12,13,13,14,14,16,16,17,17,18,18,19,19,20,20,21,21,22,22,23,23,24,24,25,25,27,27,28,28,29,29],"right_children":[2,4,6,8,10,12,14,16,18,20,22,24,26,28,30,-1,32,34,36,38,40,42,44,46,48,50,-1,52,54,56,-1,-1,-1,-1,-1,-1,-1,-1,-1,-1,-1,-1,-1,-1,-1,-1,-1,-1,-1,-1,-1,-1,-1,-1,-1,-1,-1],"split_conditions":[8.17469E1,6.596015E1,9.538407E1,5.8714386E1,7.46088E1,8.837881E1,1.0101813E2,5.4085842E1,6.363725E1,7.253617E1,7.897969E1,8.531459E1,9.467334E1,9.674374E1,1.06382355E2,-1.0077983E0,6.83816E1,6.1754723E1,6.880487E1,6.488734E1,7.049724E1,7.6671974E1,8.3500656E1,7.45374E1,8.643589E1,8.7059586E1,5.441698E-1,8.7059586E1,1.01487686E2,1.05687874E2,9.9971503E-1,-8.6708874E-1,-1.7160283E-1,-7.589323E-1,-6.5196747E-1,-6.028125E-1,-4.8461553E-1,-5.401178E-1,-3.859473E-1,-3.2802746E-1,-2.1538341E-1,-1.8819654E-1,-9.510922E-2,-3.2061767E-2,7.1988575E-2,-9.7275436E-2,1.1895813E-1,2.1555336E-1,3.2011986E-1,2.817621E-1,4.1094851E-1,3.3315182E-1,5.880806E-1,6.6640705E-1,7.702925E-1,8.068692E-1,9.3557006E-1],"split_indices":[0,0,0,0,0,0,0,1,1,1,1,1,1,1,0,0,1,0,1,1,0,2,1,1,0,1,0,1,1,1,0,0,0,0,0,0,0,0,0,0,0,0,0,0,0,0,0,0,0,0,0,0,0,0,0,0,0],"split_type":[0,0,0,0,0,0,0,0,0,0,0,0,0,0,0,0,0,0,0,0,0,0,0,0,0,0,0,0,0,0,0,0,0,0,0,0,0,0,0,0,0,0,0,0,0,0,0,0,0,0,0,0,0,0,0,0,0],"sum_hessian":[4E3,2.078E3,1.922E3,1.031E3,1.047E3,9.52E2,9.7E2,5.63E2,4.68E2,5.94E2,4.53E2,4.84E2,4.68E2,3.75E2,5.95E2,2.75E2,2.88E2,2.57E2,2.11E2,3.86E2,2.08E2,2.58E2,1.95E2,2.58E2,2.26E2,3.27E2,1.41E2,1.45E2,2.3E2,3.44E2,2.51E2,2.87E2,1E0,1.42E2,1.15E2,1.42E2,6.9E1,9.2E1,2.94E2,5.9E1,1.49E2,1.21E2,1.37E2,1.17E2,7.8E1,1.7E1,2.41E2,1.27E2,9.9E1,9.3E1,2.34E2,7E0,1.38E2,1.3E2,1E2,2.29E2,1.15E2],"tree_param":{"num_deleted":"0","num_feature":"4","num_nodes":"57","size_leaf_vector":"1"}},{"base_weights":[-9.893319E-4,-1.0789939E1,9.819788E0,-1.6340729E1,-6.367354E0,4.3693013E0,1.509712E1,-1.8385262E1,-1.4095298E1,-9.293129E0,-3.7524686E0,1.6344829E0,6.781742E0,1.21235485E1,1.7411732E1,-9.690078E-1,-8.5083723E-1,-1.5982192E1,-1.3089395E1,-1.1293597E1,-8.240801E0,-5.031158E0,-1.8376197E0,2.7568623E-1,3.2974324E0,5.2411456E0,8.443459E0,1.0504807E1,1.3340735E1,1.6202196E1,1.899855E1,-8.0214137E-1,-1.9339524E-1,-6.9677657E-1,-5.8914894E-1,-5.8059853E-1,-4.4364953E-1,-4.750812E-1,-3.7952432E-1,-3.3998337E-1,-2.2038269E-1,-1.8840328E-1,-5.840937E-2,-2.1907775E-2,9.501158E-2,1.0678854E-1,2.0411663E-1,1.6233447E-1,2.9287627E-1,3.6676005E-1,4.808843E-1,3.8963804E-1,5.3852695E-1,6.235516E-1,7.2794145E-1,7.6670116E-1,8.891949E-1,2.699673E-1,9.51561E-1],"categories":[],"categories_nodes":[],"categories_segments":[],"categories_sizes":[],"default_left":[0,0,0,0,0,0,0,0,0,0,0,0,0,0,0,0,0,0,0,0,0,0,0,0,0,0,0,0,0,0,0,0,0,0,0,0,0,0,0,0,0,0,0,0,0,0,0,0,0,0,0,0,0,0,0,0,0,0,0],"id":7,"left_children":[1,3,5,7,9,11,13,15,17,19,21,23,25,27,29,-1,-1,31,33,35,37,39,41,43,45,47,49,51,53,55,57,-1,-1,-1,-1,-1,-1,-1,-1,-1,-1,-1,-1,-1,-1,-1,-1,-1,-1,-1,-1,-1,-1,-1,-1,-1,-1,-1,-1],"loss_changes":[4.2403538E5,4.6710594E4,6.0194703E4,3.620125E3,8.097676E3,6.797625E3,7.112047E3,2.679375E2,5.633047E2,9.616133E2,1.3692583E3,1.0950021E3,1.3586465E3,7.839375E2,8.361094E2,0E0,0E0,3.858203E1,1.3535938E2,2.7978516E1,2.000957E2,3.4162988E2,2.8895093E2,3.116237E2,1.9005103E2,3.3380322E2,2.7040625E2,6.452539E1,9.811328E1,2.0104688E2,9.203125E0,0E0,0E0,0E0,0E0,0E0,0E0,0E0,0E0,0E0,0E0,0E0,0E0,0E0,0E0,0E0,0E0,0E0,0E0,0E0,0E0,0E0,0E0,0E0,0E0,0E0,0E0,0E0,0E0],"parents":[2147483647,0,0,1,1,2,2,3,3,4,4,5,5,6,6,7,7,8,8,9,9,10,10,11,11,12,12,13,13,14,14,17,17,18,18,19,19,20,20,21,21,22,22,23,23,24,24,25,25,26,26,27,27,28,28,29,29,30,30],"right_children":[2,4,6,8,10,12,14,16,18,20,22,24,26,28,30,-1,-1,32,34,36,38,40,42,44,46,48,50,52,54,56,58,-1,-1,-1,-1,-1,-1,-1,-1,-1,-1,-1,-1,-1,-1,-1,-1,-1,-1,-1,-1,-1,-1,-1,-1,-1,-1,-1,-1],"split_conditions":[7.904773E1,6.3367718E1,9.3956726E1,5.6600964E1,7.049724E1,8.6226585E1,1.0101813E2,5.4085842E1,5.766749E1,6.5195755E1,7.6217545E1,8.3500656E1,9.012882E1,9.674374E1,1.06382355E2,-9.690078E-1,-8.5083723E-1,8.071815E1,6.1243595E1,6.83507E1,6.6153206E1,6.920382E1,7.421834E1,8.329043E1,8.301951E1,8.3017975E1,9.143236E1,8.919786E1,1.015984E2,1.05687874E2,9.417803E1,-8.0214137E-1,-1.9339524E-1,-6.9677657E-1,-5.8914894E-1,-5.8059853E-1,-4.4364953E-1,-4.750812E-1,-3.7952432E-1,-3.3998337E-1,-2.2038269E-1,-1.8840328E-1,-5.840937E-2,-2.1907775E-2,9.501158E-2,1.0678854E-1,2.0411663E-1,1.6233447E-1,2.9287627E-1,3.6676005E-1,4.808843E-1,3.8963804E-1,5.3852695E-1,6.235516E-1,7.2794145E-1,7.6670116E-1,8.891949E-1,2.699673E-1,9.51561E-1],"split_indices":[0,0,0,0,0,0,0,1,1,1,1,1,1,1,0,0,0,2,0,0,0,1,0,0,0,1,0,1,1,1,1,0,0,0,0,0,0,0,0,0,0,0,0,0,0,0,0,0,0,0,0,0,0,0,0,0,0,0,0],"split_type":[0,0,0,0,0,0,0,0,0,0,0,0,0,0,0,0,0,0,0,0,0,0,0,0,0,0,0,0,0,0,0,0,0,0,0,0,0,0,0,0,0,0,0,0,0,0,0,0,0,0,0,0,0,0,0,0,0,0,0],"sum_hessian":[4E3,1.906E3,2.094E3,8.44E2,1.062E3,1.031E3,1.063E3,4.38E2,4.06E2,5E2,5.62E2,4.84E2,5.47E2,4.68E2,5.95E2,2.46E2,1.92E2,1.36E2,2.7E2,1.69E2,3.31E2,3.36E2,2.26E2,2.67E2,2.17E2,2.86E2,2.61E2,2.05E2,2.63E2,3.44E2,2.51E2,1.35E2,1E0,1.58E2,1.12E2,1.46E2,2.3E1,1.08E2,2.23E2,8.5E1,2.51E2,5.7E1,1.69E2,1.86E2,8.1E1,8.9E1,1.28E2,6.9E1,2.17E2,1.38E2,1.23E2,2.1E1,1.84E2,1.6E2,1.03E2,2.29E2,1.15E2,1E0,2.5E2],"tree_param":{"num_deleted":"0","num_feature":"4","num_nodes":"59","size_leaf_vector":"1"}},{"base_weights":[-9.259989E-4,-1.0254002E1,9.332065E0,-1.5112094E1,-5.6912866E0,4.3715177E0,1.4575814E1,-1.6918371E1,-1.2240281E1,-8.091338E0,-3.200323E0,1.6381161E0,6.7420483E0,1.1765437E1,1.6545973E1,-1.7733728E1,-1.4856651E1,-6.762063E-1,-1.1192224E1,-1.0480386E1,-7.217161E0,-4.44912E0,-1.6245109E0,-4.6925536E-1,2.6527793E0,5.10592E0,8.256725E0,1.0239393E1,1.2800994E1,1.4888488E1,1.7576256E1,-9.130068E-1,-8.0109656E-1,-7.455177E-1,-1.4989339E-1,-5.905623E-1,-4.7737223E-1,-5.4609716E-1,-4.3447217E-1,-3.9945856E-1,-2.9306984E-1,-2.7220017E-1,-1.8321884E-1,-1.1476948E-1,-9.622896E-3,-4.8743322E-2,5.6125533E-2,7.028883E-2,1.7457798E-1,1.608104E-1,2.8845677E-1,3.5101175E-1,4.6188718E-1,3.7264857E-1,5.2645665E-1,6.1072844E-1,7.217443E-1,6.228644E-1,7.669043E-1,6.609094E-1,8.889565E-1],"categories":[],"categories_nodes":[],"categories_segments":[],"categories_sizes":[],"default_left":[0,0,0,0,0,0,0,0,0,0,0,0,0,0,0,0,0,0,0,0,0,0,0,0,0,0,0,0,0,0,0,0,0,0,0,0,0,0,0,0,0,0,0,0,0,0,0,0,0,0,0,0,0,0,0,0,0,0,0,0,0],"id":8,"left_children":[1,3,5,7,9,11,13,15,17,19,21,23,25,27,29,31,33,-1,35,37,39,41,43,45,47,49,51,53,55,57,59,-1,-1,-1,-1,-1,-1,-1,-1,-1,-1,-1,-1,-1,-1,-1,-1,-1,-1,-1,-1,-1,-1,-1,-1,-1,-1,-1,-1,-1,-1],"loss_changes":[3.829588E5,4.218472E4,5.4431156E4,4.5807812E3,5.862869E3,6.9739746E3,5.4418906E3,6.846406E2,3.3302734E2,9.706758E2,9.471885E2,1.0746572E3,1.3877695E3,5.373906E2,7.5609375E2,6.6984375E1,6.1015625E1,0E0,9.49375E1,9.481445E0,3.404375E2,1.9084717E2,2.0707672E2,1.330839E2,3.4967236E2,3.3236572E2,2.9662695E2,6.3617188E1,6.1308594E1,6.5796875E1,8.5046875E1,0E0,0E0,0E0,0E0,0E0,0E0,0E0,0E0,0E0,0E0,0E0,0E0,0E0,0E0,0E0,0E0,0E0,0E0,0E0,0E0,0E0,0E0,0E0,0E0,0E0,0E0,0E0,0E0,0E0,0E0],"parents":[2147483647,0,0,1,1,2,2,3,3,4,4,5,5,6,6,7,7,8,8,9,9,10,10,11,11,12,12,13,13,14,14,15,15,16,16,18,18,19,19,20,20,21,21,22,22,23,23,24,24,25,25,26,26,27,27,28,28,29,29,30,30],"right_children":[2,4,6,8,10,12,14,16,18,20,22,24,26,28,30,32,34,-1,36,38,40,42,44,46,48,50,52,54,56,58,60,-1,-1,-1,-1,-1,-1,-1,-1,-1,-1,-1,-1,-1,-1,-1,-1,-1,-1,-1,-1,-1,-1,-1,-1,-1,-1,-1,-1,-1,-1],"split_conditions":[7.904773E1,6.431739E1,9.462615E1,5.8714386E1,7.152758E1,8.643589E1,1.0101813E2,5.6888367E1,6.1243595E1,6.488734E1,7.6217545E1,8.006292E1,9.012882E1,9.674374E1,1.0473513E2,5.556519E1,6.83816E1,-6.762063E-1,6.6355934E1,6.83507E1,6.9290825E1,7.177018E1,8.13356E1,8.329043E1,8.278902E1,8.3500656E1,9.143236E1,8.919786E1,1.03460915E2,9.776572E1,9.9034744E1,-9.130068E-1,-8.0109656E-1,-7.455177E-1,-1.4989339E-1,-5.905623E-1,-4.7737223E-1,-5.4609716E-1,-4.3447217E-1,-3.9945856E-1,-2.9306984E-1,-2.7220017E-1,-1.8321884E-1,-1.1476948E-1,-9.622896E-3,-4.8743322E-2,5.6125533E-2,7.028883E-2,1.7457798E-1,1.608104E-1,2.8845677E-1,3.5101175E-1,4.6188718E-1,3.7264857E-1,5.2645665E-1,6.1072844E-1,7.217443E-1,6.228644E-1,7.669043E-1,6.609094E-1,8.889565E-1],"split_indices":[0,0,0,0,0,0,0,1,0,1,1,1,1,1,0,0,1,0,1,0,0,1,1,0,0,1,0,1,2,1,1,0,0,0,0,0,0,0,0,0,0,0,0,0,0,0,0,0,0,0,0,0,0,0,0,0,0,0,0,0,0],"split_type":[0,0,0,0,0,0,0,0,0,0,0,0,0,0,0,0,0,0,0,0,0,0,0,0,0,0,0,0,0,0,0,0,0,0,0,0,0,0,0,0,0,0,0,0,0,0,0,0,0,0,0,0,0,0,0,0,0,0,0,0,0],"sum_hessian":[4E3,1.906E3,2.094E3,9.22E2,9.84E2,1.077E3,1.017E3,5.63E2,3.59E2,5E2,4.84E2,5.01E2,5.76E2,4.22E2,5.95E2,3.98E2,1.65E2,1.56E2,2.03E2,1.31E2,3.69E2,2.69E2,2.15E2,1.63E2,3.38E2,2.79E2,2.97E2,1.75E2,2.47E2,2.34E2,3.61E2,2.97E2,1.01E2,1.64E2,1E0,1.43E2,6E1,1.01E2,3E1,2.32E2,1.37E2,1.16E2,1.53E2,1.46E2,6.9E1,1.24E2,3.9E1,1.37E2,2.01E2,7.4E1,2.05E2,1.35E2,1.62E2,1.9E1,1.56E2,1.88E2,5.9E1,4.1E1,1.93E2,1.9E1,3.42E2],"tree_param":{"num_deleted":"0","num_feature":"4","num_nodes":"61","size_leaf_vector":"1"}},{"base_weights":[-8.596779E-4,-8.941719E0,9.665311E0,-1.3776389E1,-4.0234275E0,5.165316E0,1.4071934E1,-1.5879315E1,-1.0811403E1,-6.111513E0,-1.1889254E0,3.1787376E0,7.4938755E0,1.2127682E1,1.639073E1,-8.5052794E-1,-1.4358122E1,-1.1834042E1,-9.375486E0,-7.89045E0,-4.891636E0,-2.2746413E0,2.0672627E-1,1.8165789E0,4.587557E0,6.3426194E0,9.019542E0,1.0982716E1,1.3739117E1,7.033895E-1,8.407227E-1,-7.4801654E-1,-6.323914E-1,-6.757202E-1,-5.6310016E-1,-4.8231313E-1,-3.3160993E-1,-4.7560334E-1,-3.6037213E-1,-2.895498E-1,-1.8732846E-1,-1.6051711E-1,-7.1756326E-2,-2.1558395E-2,7.649299E-2,-8.839995E-2,1.0430261E-1,1.7028068E-1,2.5826463E-1,2.4535318E-1,3.5198668E-1,4.2769894E-1,5.30384E-1,5.040081E-1,6.0666734E-1,4.7873965E-1,6.968088E-1],"categories":[],"categories_nodes":[],"categories_segments":[],"categories_sizes":[],"default_left":[0,0,0,0,0,0,0,0,0,0,0,0,0,0,0,0,0,0,0,0,0,0,0,0,0,0,0,0,0,0,0,0,0,0,0,0,0,0,0,0,0,0,0,0,0,0,0,0,0,0,0,0,0,0,0,0,0],"id":9,"left_children":[1,3,5,7,9,11,13,15,17,19,21,23,25,27,29,-1,31,33,35,37,39,41,43,45,47,49,51,53,55,-1,-1,-1,-1,-1,-1,-1,-1,-1,-1,-1,-1,-1,-1,-1,-1,-1,-1,-1,-1,-1,-1,-1,-1,-1,-1,-1,-1],"loss_changes":[3.458683E5,4.9379703E4,3.805997E4,6.36275E3,6.1008125E3,4.384627E3,4.1788125E3,8.072031E2,5.3222266E2,1.2504336E3,6.656787E2,9.818887E2,7.121113E2,8.306719E2,1.9653906E2,0E0,8.578125E1,9.003125E1,7.493164E1,1.9726074E2,3.438916E2,1.894198E2,1.6355531E2,2.586983E2,1.5517041E2,2.1864453E2,4.678711E1,2.0586719E2,4.463672E1,0E0,0E0,0E0,0E0,0E0,0E0,0E0,0E0,0E0,0E0,0E0,0E0,0E0,0E0,0E0,0E0,0E0,0E0,0E0,0E0,0E0,0E0,0E0,0E0,0E0,0E0,0E0,0E0],"parents":[2147483647,0,0,1,1,2,2,3,3,4,4,5,5,6,6,7,7,8,8,9,9,10,10,11,11,12,12,13,13,14,14,16,16,17,17,18,18,19,19,20,20,21,21,22,22,23,23,24,24,25,25,26,26,27,27,28,28],"right_children":[2,4,6,8,10,12,14,16,18,20,22,24,26,28,30,-1,32,34,36,38,40,42,44,46,48,50,52,54,56,-1,-1,-1,-1,-1,-1,-1,-1,-1,-1,-1,-1,-1,-1,-1,-1,-1,-1,-1,-1,-1,-1,-1,-1,-1,-1,-1,-1],"split_conditions":[8.17469E1,6.6153206E1,9.538407E1,5.945712E1,7.483549E1,8.902776E1,1.0371607E2,5.5171474E1,6.46681E1,6.920382E1,7.897969E1,8.531459E1,9.289149E1,1.0090834E2,1.01487686E2,-8.5052794E-1,5.960471E1,5.766749E1,7.2880295E1,6.3870247E1,7.361384E1,7.6671974E1,8.460485E1,7.45374E1,8.511898E1,8.7059586E1,9.978936E1,9.905894E1,8.434475E1,7.033895E-1,8.407227E-1,-7.4801654E-1,-6.323914E-1,-6.757202E-1,-5.6310016E-1,-4.8231313E-1,-3.3160993E-1,-4.7560334E-1,-3.6037213E-1,-2.895498E-1,-1.8732846E-1,-1.6051711E-1,-7.1756326E-2,-2.1558395E-2,7.649299E-2,-8.839995E-2,1.0430261E-1,1.7028068E-1,2.5826463E-1,2.4535318E-1,3.5198668E-1,4.2769894E-1,5.30384E-1,5.040081E-1,6.0666734E-1,4.7873965E-1,6.968088E-1],"split_indices":[0,0,0,0,0,0,0,0,1,1,1,1,1,1,1,0,1,1,1,1,2,2,1,1,0,1,1,0,2,0,0,0,0,0,0,0,0,0,0,0,0,0,0,0,0,0,0,0,0,0,0,0,0,0,0,0,0],"split_type":[0,0,0,0,0,0,0,0,0,0,0,0,0,0,0,0,0,0,0,0,0,0,0,0,0,0,0,0,0,0,0,0,0,0,0,0,0,0,0,0,0,0,0,0,0,0,0,0,0,0,0,0,0,0,0,0,0],"sum_hessian":[4E3,2.078E3,1.922E3,1.047E3,1.031E3,9.52E2,9.7E2,6.1E2,4.37E2,5.93E2,4.38E2,5.15E2,4.37E2,5.31E2,4.39E2,3.44E2,2.66E2,2.51E2,1.86E2,2.39E2,3.54E2,2.46E2,1.92E2,2.63E2,2.52E2,2.52E2,1.85E2,3.15E2,2.16E2,7.3E1,3.66E2,1.91E2,7.5E1,5.8E1,1.93E2,1.67E2,1.9E1,6.7E1,1.72E2,1.96E2,1.58E2,1.15E2,1.31E2,1.3E2,6.2E1,1.8E1,2.45E2,8.5E1,1.67E2,8.5E1,1.67E2,1.48E2,3.7E1,1.82E2,1.33E2,1.2E1,2.04E2],"tree_param":{"num_deleted":"0","num_feature":"4","num_nodes":"57","size_leaf_vector":"1"}},{"base_weights":[-8.0197025E-4,-9.263191E0,8.430405E0,-1.4033136E1,-5.4627523E0,3.6049418E0,1.2825507E1,-1.5786166E1,-1.2107798E1,-7.9841566E0,-3.209313E0,1.0258815E0,5.366007E0,1.0274015E1,1.4948782E1,-8.339414E-1,-7.280975E-1,-1.374702E1,-1.1234434E1,-9.191392E0,-6.695391E0,-4.315139E0,-1.5534866E0,-1.5641886E-1,2.2746553E0,3.7159219E0,6.4664416E0,8.88749E0,1.1408672E1,1.3880046E1,1.6352612E1,-6.9009763E-1,-1.5690327E-1,-5.9762543E-1,-5.0623137E-1,-5.0182414E-1,-4.1735408E-1,-3.4887883E-1,-2.3653296E-1,-2.9227957E-1,-1.8878588E-1,-1.6104181E-1,-4.8774403E-2,-1.0040393E-1,1.1269392E-2,8.230868E-2,1.6758174E-1,8.590413E-2,2.0778254E-1,2.9061535E-1,4.15014E-1,2.4634059E-1,4.5225635E-1,5.083257E-1,6.0585564E-1,6.5519786E-1,7.6495934E-1,3.364521E-1,8.2013416E-1],"categories":[],"categories_nodes":[],"categories_segments":[],"categories_sizes":[],"default_left":[0,0,0,0,0,0,0,0,0,0,0,0,0,0,0,0,0,0,0,0,0,0,0,0,0,0,0,0,0,0,0,0,0,0,0,0,0,0,0,0,0,0,0,0,0,0,0,0,0,0,0,0,0,0,0,0,0,0,0],"id":10,"left_children":[1,3,5,7,9,11,13,15,17,19,21,23,25,27,29,-1,-1,31,33,35,37,39,41,43,45,47,49,51,53,55,57,-1,-1,-1,-1,-1,-1,-1,-1,-1,-1,-1,-1,-1,-1,-1,-1,-1,-1,-1,-1,-1,-1,-1,-1,-1,-1,-1,-1],"loss_changes":[3.1252866E5,3.449322E4,4.438536E4,2.660875E3,6.014166E3,4.5363867E3,5.7840156E3,2.36875E2,4.2823438E2,7.179375E2,1.0241802E3,6.012611E2,1.0545625E3,6.8679297E2,6.672344E2,0E0,0E0,3.653125E1,9.494922E1,9.8884766E1,1.0337793E2,2.561421E2,2.156239E2,1.4891757E2,1.2850122E2,2.0370215E2,3.7760547E2,9.903516E1,1.16171875E2,1.795E2,1.10546875E1,0E0,0E0,0E0,0E0,0E0,0E0,0E0,0E0,0E0,0E0,0E0,0E0,0E0,0E0,0E0,0E0,0E0,0E0,0E0,0E0,0E0,0E0,0E0,0E0,0E0,0E0,0E0,0E0],"parents":[2147483647,0,0,1,1,2,2,3,3,4,4,5,5,6,6,7,7,8,8,9,9,10,10,11,11,12,12,13,13,14,14,17,17,18,18,19,19,20,20,21,21,22,22,23,23,24,24,25,25,26,26,27,27,28,28,29,29,30,30],"right_children":[2,4,6,8,10,12,14,16,18,20,22,24,26,28,30,-1,-1,32,34,36,38,40,42,44,46,48,50,52,54,56,58,-1,-1,-1,-1,-1,-1,-1,-1,-1,-1,-1,-1,-1,-1,-1,-1,-1,-1,-1,-1,-1,-1,-1,-1,-1,-1,-1,-1],"split_conditions":[7.904773E1,6.3367718E1,9.3528404E1,5.6600964E1,7.049724E1,8.497933E1,1.0101813E2,5.4085842E1,5.766749E1,6.750708E1,7.6217545E1,8.207643E1,8.756228E1,9.674374E1,1.06382355E2,-8.339414E-1,-7.280975E-1,8.071815E1,6.1243595E1,6.363725E1,7.45374E1,6.920382E1,7.421834E1,7.399727E1,8.7059586E1,8.072082E1,9.493208E1,8.687859E1,9.708585E1,1.05687874E2,9.440963E1,-6.9009763E-1,-1.5690327E-1,-5.9762543E-1,-5.0623137E-1,-5.0182414E-1,-4.1735408E-1,-3.4887883E-1,-2.3653296E-1,-2.9227957E-1,-1.8878588E-1,-1.6104181E-1,-4.8774403E-2,-1.0040393E-1,1.1269392E-2,8.230868E-2,1.6758174E-1,8.590413E-2,2.0778254E-1,2.9061535E-1,4.15014E-1,2.4634059E-1,4.5225635E-1,5.083257E-1,6.0585564E-1,6.5519786E-1,7.6495934E-1,3.364521E-1,8.2013416E-1],"split_indices":[0,0,0,0,0,0,0,1,1,1,1,1,1,1,0,0,0,2,0,1,1,1,0,1,1,1,1,1,0,1,1,0,0,0,0,0,0,0,0,0,0,0,0,0,0,0,0,0,0,0,0,0,0,0,0,0,0,0,0],"split_type":[0,0,0,0,0,0,0,0,0,0,0,0,0,0,0,0,0,0,0,0,0,0,0,0,0,0,0,0,0,0,0,0,0,0,0,0,0,0,0,0,0,0,0,0,0,0,0,0,0,0,0,0,0,0,0,0,0,0,0],"sum_hessian":[4E3,1.906E3,2.094E3,8.44E2,1.062E3,9.99E2,1.095E3,4.38E2,4.06E2,5E2,5.62E2,4.06E2,5.93E2,5E2,5.95E2,2.46E2,1.92E2,1.36E2,2.7E2,2.55E2,2.45E2,3.36E2,2.26E2,2.09E2,1.97E2,2.39E2,3.54E2,2.29E2,2.71E2,3.44E2,2.51E2,1.35E2,1E0,1.58E2,1.12E2,1.22E2,1.33E2,2.12E2,3.3E1,8.5E1,2.51E2,5.7E1,1.69E2,3.5E1,1.74E2,1.26E2,7.1E1,4.4E1,1.95E2,2.64E2,9E1,1E1,2.19E2,1.04E2,1.67E2,2.29E2,1.15E2,2E0,2.49E2],"tree_param":{"num_deleted":"0","num_feature":"4","num_nodes":"59","size_leaf_vector":"1"}},{"base_weights":[-8.01955E-4,-8.017874E0,8.797809E0,-1.2516641E1,-3.64276E0,4.7357926E0,1.2712713E1,-1.4524227E1,-1.0075712E1,-5.898066E0,-1.3806064E0,3.1039667E0,7.010741E0,1.0954926E1,1.4809146E1,-1.5248855E1,-1.2695005E1,-1.1192477E1,-8.886636E0,-6.755711E0,-4.063718E0,-2.9465034E0,-3.8207492E-1,1.6442049E0,4.1865783E0,6.1780934E0,4.2897508E-1,9.910228E0,1.2425754E1,5.998952E-1,1.5099039E1,-7.851378E-1,-6.886627E-1,-6.371985E-1,-1.15395546E-1,-6.179548E-1,-5.206346E-1,-4.7228995E-1,-3.728817E-1,-4.3530354E-1,-3.1198418E-1,-2.3727039E-1,-1.6634245E-1,-1.8378626E-1,-1.015391E-1,-4.548419E-2,5.994884E-2,1.5382414E-2,1.17925934E-1,1.5418655E-1,2.4085584E-1,2.441229E-1,3.330173E-1,4.545074E-1,5.478115E-1,4.2768556E-1,6.3053423E-1,6.3361293E-1,7.672155E-1],"categories":[],"categories_nodes":[],"categories_segments":[],"categories_sizes":[],"default_left":[0,0,0,0,0,0,0,0,0,0,0,0,0,0,0,0,0,0,0,0,0,0,0,0,0,0,0,0,0,0,0,0,0,0,0,0,0,0,0,0,0,0,0,0,0,0,0,0,0,0,0,0,0,0,0,0,0,0,0],"id":11,"left_children":[1,3,5,7,9,11,13,15,17,19,21,23,25,27,29,31,33,35,37,39,41,43,45,47,49,51,-1,53,55,-1,57,-1,-1,-1,-1,-1,-1,-1,-1,-1,-1,-1,-1,-1,-1,-1,-1,-1,-1,-1,-1,-1,-1,-1,-1,-1,-1,-1,-1],"loss_changes":[2.8229744E5,4.1169797E4,3.0281594E4,4.9108438E3,5.415121E3,3.4603945E3,3.4159844E3,5.540078E2,5.2333203E2,8.095E2,8.307079E2,8.591509E2,4.5772852E2,6.943125E2,1.7742969E2,5.0960938E1,5.501758E1,8.781836E1,1.1493359E2,3.0900195E2,7.0611084E1,1.307627E2,2.7303235E2,2.2363367E2,2.0349756E2,1.2931055E2,0E0,1.7146875E2,4.7515625E1,0E0,4.0671875E1,0E0,0E0,0E0,0E0,0E0,0E0,0E0,0E0,0E0,0E0,0E0,0E0,0E0,0E0,0E0,0E0,0E0,0E0,0E0,0E0,0E0,0E0,0E0,0E0,0E0,0E0,0E0,0E0],"parents":[2147483647,0,0,1,1,2,2,3,3,4,4,5,5,6,6,7,7,8,8,9,9,10,10,11,11,12,12,13,13,14,14,15,15,16,16,17,17,18,18,19,19,20,20,21,21,22,22,23,23,24,24,25,25,27,27,28,28,30,30],"right_children":[2,4,6,8,10,12,14,16,18,20,22,24,26,28,30,32,34,36,38,40,42,44,46,48,50,52,-1,54,56,-1,58,-1,-1,-1,-1,-1,-1,-1,-1,-1,-1,-1,-1,-1,-1,-1,-1,-1,-1,-1,-1,-1,-1,-1,-1,-1,-1,-1,-1],"split_conditions":[8.193583E1,6.596015E1,9.538407E1,5.8714386E1,7.3480576E1,8.9797646E1,1.0371607E2,5.6888367E1,6.2879856E1,7.253617E1,7.6217545E1,8.431756E1,9.467334E1,1.0090834E2,1.0037175E2,5.556519E1,6.83816E1,5.902737E1,6.880487E1,6.3870247E1,7.350115E1,7.6671974E1,8.3500656E1,7.9381454E1,8.434475E1,8.756228E1,4.2897508E-1,9.905894E1,8.434475E1,5.998952E-1,9.693176E1,-7.851378E-1,-6.886627E-1,-6.371985E-1,-1.15395546E-1,-6.179548E-1,-5.206346E-1,-4.7228995E-1,-3.728817E-1,-4.3530354E-1,-3.1198418E-1,-2.3727039E-1,-1.6634245E-1,-1.8378626E-1,-1.015391E-1,-4.548419E-2,5.994884E-2,1.5382414E-2,1.17925934E-1,1.5418655E-1,2.4085584E-1,2.441229E-1,3.330173E-1,4.545074E-1,5.478115E-1,4.2768556E-1,6.3053423E-1,6.3361293E-1,7.672155E-1],"split_indices":[0,0,0,0,0,0,0,1,1,1,1,1,1,1,1,0,1,2,1,1,2,2,1,2,2,1,0,0,2,0,2,0,0,0,0,0,0,0,0,0,0,0,0,0,0,0,0,0,0,0,0,0,0,0,0,0,0,0,0],"split_type":[0,0,0,0,0,0,0,0,0,0,0,0,0,0,0,0,0,0,0,0,0,0,0,0,0,0,0,0,0,0,0,0,0,0,0,0,0,0,0,0,0,0,0,0,0,0,0,0,0,0,0,0,0,0,0,0,0,0,0],"sum_hessian":[4E3,2.093E3,1.907E3,1.031E3,1.062E3,9.37E2,9.7E2,5.63E2,4.68E2,5.31E2,5.31E2,5.47E2,3.9E2,5.31E2,4.39E2,3.98E2,1.65E2,2.37E2,2.31E2,3.6E2,1.71E2,2.06E2,3.25E2,2.34E2,3.13E2,2.58E2,1.32E2,3.15E2,2.16E2,4.5E1,3.94E2,2.97E2,1.01E2,1.64E2,1E0,8.9E1,1.48E2,1.62E2,6.9E1,7.2E1,2.88E2,8.6E1,8.5E1,1.13E2,9.3E1,2.44E2,8.1E1,8.2E1,1.52E2,1.16E2,1.97E2,7.3E1,1.85E2,1.82E2,1.33E2,1.2E1,2.04E2,4.1E1,3.53E2],"tree_param":{"num_deleted":"0","num_feature":"4","num_nodes":"59","size_leaf_vector":"1"}},{"base_weights":[-7.7016745E-4,-8.3693695E0,7.6168523E0,-1.2679568E1,-4.9352326E0,3.5700738E0,1.1894662E1,-1.4206453E1,-1.087033E1,-7.2152185E0,-2.8975625E0,1.5651175E0,5.7507334E0,9.59544E0,1.3506536E1,-7.4601245E-1,-1.2770267E1,-1.196598E1,-9.741913E0,-8.303063E0,-6.0538216E0,-4.340097E0,-1.8733691E0,3.0616027E-1,2.8731413E0,4.427213E0,6.8418365E0,7.929454E0,1.025983E1,1.2372838E1,7.306877E-1,-6.407973E-1,-1.3996468E-1,-6.00233E-1,-1.1251068E-1,-4.8970518E-1,-1.5424041E-1,-4.2990908E-1,-3.2202658E-1,-3.5480866E-1,-2.7730435E-1,-2.6409566E-1,-1.8817501E-1,-1.1712328E-1,-7.6695173E-3,-1.7616482E-2,7.551951E-2,8.170811E-2,1.7270385E-1,1.8439832E-1,2.7927297E-1,2.899737E-1,3.7804255E-1,2.9346293E-1,4.1216823E-1,4.8865038E-1,5.93102E-1,5.5301154E-1,6.6028374E-1],"categories":[],"categories_nodes":[],"categories_segments":[],"categories_sizes":[],"default_left":[0,0,0,0,0,0,0,0,0,0,0,0,0,0,0,0,0,0,0,0,0,0,0,0,0,0,0,0,0,0,0,0,0,0,0,0,0,0,0,0,0,0,0,0,0,0,0,0,0,0,0,0,0,0,0,0,0,0,0],"id":12,"left_children":[1,3,5,7,9,11,13,15,17,19,21,23,25,27,29,-1,31,33,35,37,39,41,43,45,47,49,51,53,55,57,-1,-1,-1,-1,-1,-1,-1,-1,-1,-1,-1,-1,-1,-1,-1,-1,-1,-1,-1,-1,-1,-1,-1,-1,-1,-1,-1,-1,-1],"loss_changes":[2.5512281E5,2.8164484E4,3.6224805E4,2.179875E3,4.9176406E3,4.7041543E3,3.6431562E3,2.7590625E2,3.6684375E2,5.82709E2,8.2366455E2,9.262384E2,7.148633E2,3.8684766E2,5.673203E2,0E0,3.6089844E1,4.5896484E1,3.858008E1,8.533789E1,9.0836914E1,1.0665137E2,2.6670337E2,2.2890846E2,1.9301099E2,1.8147119E2,1.6675195E2,3.245703E1,1.17291016E2,1.8299219E2,0E0,0E0,0E0,0E0,0E0,0E0,0E0,0E0,0E0,0E0,0E0,0E0,0E0,0E0,0E0,0E0,0E0,0E0,0E0,0E0,0E0,0E0,0E0,0E0,0E0,0E0,0E0,0E0,0E0],"parents":[2147483647,0,0,1,1,2,2,3,3,4,4,5,5,6,6,7,7,8,8,9,9,10,10,11,11,12,12,13,13,14,14,16,16,17,17,18,18,19,19,20,20,21,21,22,22,23,23,24,24,25,25,26,26,27,27,28,28,29,29],"right_children":[2,4,6,8,10,12,14,16,18,20,22,24,26,28,30,-1,32,34,36,38,40,42,44,46,48,50,52,54,56,58,-1,-1,-1,-1,-1,-1,-1,-1,-1,-1,-1,-1,-1,-1,-1,-1,-1,-1,-1,-1,-1,-1,-1,-1,-1,-1,-1,-1,-1],"split_conditions":[7.904773E1,6.3367718E1,9.462615E1,5.6888367E1,7.049724E1,8.7203476E1,1.0101813E2,5.556519E1,5.945712E1,6.750708E1,7.3749695E1,8.3500656E1,9.012882E1,9.493208E1,1.0539401E2,-7.4601245E-1,8.071815E1,6.880487E1,7.3252174E1,6.852E1,6.461146E1,6.920382E1,8.13356E1,8.329043E1,8.301951E1,9.091167E1,9.143236E1,8.919786E1,1.03460915E2,1.0138691E2,7.306877E-1,-6.407973E-1,-1.3996468E-1,-6.00233E-1,-1.1251068E-1,-4.8970518E-1,-1.5424041E-1,-4.2990908E-1,-3.2202658E-1,-3.5480866E-1,-2.7730435E-1,-2.6409566E-1,-1.8817501E-1,-1.1712328E-1,-7.6695173E-3,-1.7616482E-2,7.551951E-2,8.170811E-2,1.7270385E-1,1.8439832E-1,2.7927297E-1,2.899737E-1,3.7804255E-1,2.9346293E-1,4.1216823E-1,4.8865038E-1,5.93102E-1,5.5301154E-1,6.6028374E-1],"split_indices":[0,0,0,1,0,0,0,0,0,1,1,1,1,1,1,0,2,1,1,0,2,1,1,0,0,0,0,1,2,2,0,0,0,0,0,0,0,0,0,0,0,0,0,0,0,0,0,0,0,0,0,0,0,0,0,0,0,0,0],"split_type":[0,0,0,0,0,0,0,0,0,0,0,0,0,0,0,0,0,0,0,0,0,0,0,0,0,0,0,0,0,0,0,0,0,0,0,0,0,0,0,0,0,0,0,0,0,0,0,0,0,0,0,0,0,0,0,0,0,0,0],"sum_hessian":[4E3,1.906E3,2.094E3,8.44E2,1.062E3,1.077E3,1.017E3,4.54E2,3.9E2,5E2,5.62E2,5.62E2,5.15E2,4.22E2,5.95E2,2.97E2,1.57E2,1.93E2,1.97E2,2.55E2,2.45E2,2.32E2,3.3E2,2.87E2,2.75E2,2.35E2,2.8E2,1.24E2,2.98E2,3E2,2.95E2,1.56E2,1E0,1.92E2,1E0,1.95E2,2E0,2.17E2,3.8E1,7.6E1,1.69E2,8.5E1,1.47E2,2.59E2,7.1E1,1.86E2,1.01E2,8.9E1,1.86E2,1.46E2,8.9E1,1.18E2,1.62E2,1.9E1,1.05E2,2.34E2,6.4E1,1.22E2,1.78E2],"tree_param":{"num_deleted":"0","num_feature":"4","num_nodes":"59","size_leaf_vector":"1"}},{"base_weights":[-6.4877217E-4,-7.9534407E0,7.23848E0,-1.2049002E1,-4.6903152E0,3.0350842E0,1.0958648E1,-1.3559336E1,-1.0390314E1,-6.85722E0,-2.7537086E0,8.7310606E-1,4.549575E0,8.507917E0,1.2632923E1,-7.356991E-1,-1.2803347E1,-1.1822124E1,-9.628143E0,-7.8908477E0,-5.7537003E0,-3.7033176E0,-1.3318058E0,-4.0549743E-1,1.728917E0,3.5742035E0,5.8930707E0,7.0205803E0,9.255465E0,1.1322575E1,1.367309E1,-7.0340693E-1,-6.093346E-1,-5.934457E-1,-1.3646565E-1,-4.9085203E-1,-3.3833155E-1,-4.6056935E-1,-3.7198022E-1,-3.0040014E-1,-1.9956718E-1,-2.3845628E-1,-1.5611547E-1,-1.2870616E-1,-3.5706103E-2,-5.009374E-2,3.3641655E-2,6.171648E-2,1.4466439E-1,1.3974762E-1,2.2546864E-1,2.6141256E-1,3.5406622E-1,2.5720212E-1,3.722405E-1,4.3259668E-1,5.313344E-1,4.858872E-1,5.944726E-1,6.242942E-1,7.134572E-1],"categories":[],"categories_nodes":[],"categories_segments":[],"categories_sizes":[],"default_left":[0,0,0,0,0,0,0,0,0,0,0,0,0,0,0,0,0,0,0,0,0,0,0,0,0,0,0,0,0,0,0,0,0,0,0,0,0,0,0,0,0,0,0,0,0,0,0,0,0,0,0,0,0,0,0,0,0,0,0,0,0],"id":13,"left_children":[1,3,5,7,9,11,13,15,17,19,21,23,25,27,29,-1,31,33,35,37,39,41,43,45,47,49,51,53,55,57,59,-1,-1,-1,-1,-1,-1,-1,-1,-1,-1,-1,-1,-1,-1,-1,-1,-1,-1,-1,-1,-1,-1,-1,-1,-1,-1,-1,-1,-1,-1],"loss_changes":[2.3040028E5,2.5429266E4,3.2726969E4,1.9759844E3,4.4419336E3,3.221209E3,4.451172E3,1.9482031E2,3.3032812E2,5.260547E2,7.5525977E2,4.4605795E2,7.3766406E2,4.398047E2,7.4202344E2,0E0,4.148047E1,2.5894531E1,8.005664E1,8.40166E1,8.627051E1,1.9379443E2,1.7235236E2,1.0614116E2,1.3694427E2,2.3370801E2,1.5415137E2,8.589258E1,1.555039E2,1.5465625E2,7.8E1,0E0,0E0,0E0,0E0,0E0,0E0,0E0,0E0,0E0,0E0,0E0,0E0,0E0,0E0,0E0,0E0,0E0,0E0,0E0,0E0,0E0,0E0,0E0,0E0,0E0,0E0,0E0,0E0,0E0,0E0],"parents":[2147483647,0,0,1,1,2,2,3,3,4,4,5,5,6,6,7,7,8,8,9,9,10,10,11,11,12,12,13,13,14,14,16,16,17,17,18,18,19,19,20,20,21,21,22,22,23,23,24,24,25,25,26,26,27,27,28,28,29,29,30,30],"right_children":[2,4,6,8,10,12,14,16,18,20,22,24,26,28,30,-1,32,34,36,38,40,42,44,46,48,50,52,54,56,58,60,-1,-1,-1,-1,-1,-1,-1,-1,-1,-1,-1,-1,-1,-1,-1,-1,-1,-1,-1,-1,-1,-1,-1,-1,-1,-1,-1,-1,-1,-1],"split_conditions":[7.904773E1,6.3367718E1,9.335367E1,5.6600964E1,7.049724E1,8.497933E1,1.0003263E2,5.1534363E1,5.766749E1,6.750708E1,7.6217545E1,8.051599E1,9.012882E1,9.467334E1,1.0473513E2,-7.356991E-1,5.2230034E1,8.071815E1,6.920382E1,6.1148266E1,7.45374E1,7.0355415E1,7.511856E1,8.341964E1,8.7059586E1,8.837881E1,9.493208E1,8.919786E1,1.015984E2,9.9034744E1,1.0506462E2,-7.0340693E-1,-6.093346E-1,-5.934457E-1,-1.3646565E-1,-4.9085203E-1,-3.3833155E-1,-4.6056935E-1,-3.7198022E-1,-3.0040014E-1,-1.9956718E-1,-2.3845628E-1,-1.5611547E-1,-1.2870616E-1,-3.5706103E-2,-5.009374E-2,3.3641655E-2,6.171648E-2,1.4466439E-1,1.3974762E-1,2.2546864E-1,2.6141256E-1,3.5406622E-1,2.5720212E-1,3.722405E-1,4.3259668E-1,5.313344E-1,4.858872E-1,5.944726E-1,6.242942E-1,7.134572E-1],"split_indices":[0,0,0,0,0,0,0,1,1,1,1,1,1,1,0,0,0,2,1,1,1,1,0,2,1,0,1,1,1,1,1,0,0,0,0,0,0,0,0,0,0,0,0,0,0,0,0,0,0,0,0,0,0,0,0,0,0,0,0,0,0],"split_type":[0,0,0,0,0,0,0,0,0,0,0,0,0,0,0,0,0,0,0,0,0,0,0,0,0,0,0,0,0,0,0,0,0,0,0,0,0,0,0,0,0,0,0,0,0,0,0,0,0,0,0,0,0,0,0,0,0,0,0,0,0],"sum_hessian":[4E3,1.906E3,2.094E3,8.44E2,1.062E3,9.84E2,1.11E3,4.38E2,4.06E2,5E2,5.62E2,4.06E2,5.78E2,4.53E2,6.57E2,1.66E2,2.72E2,1.36E2,2.7E2,2.55E2,2.45E2,3.36E2,2.26E2,1.63E2,2.43E2,3.37E2,2.41E2,1.55E2,2.98E2,2.96E2,3.61E2,8.2E1,1.9E2,1.35E2,1E0,2.51E2,1.9E1,6E1,1.95E2,2.12E2,3.3E1,1.16E2,2.2E2,7.4E1,1.52E2,1.05E2,5.8E1,1.72E2,7.1E1,1.86E2,1.51E2,1.58E2,8.3E1,3.1E1,1.24E2,2.12E2,8.6E1,8.2E1,2.14E2,1.28E2,2.33E2],"tree_param":{"num_deleted":"0","num_feature":"4","num_nodes":"61","size_leaf_vector":"1"}},{"base_weights":[-6.9498713E-4,-6.936752E0,7.4980373E0,-1.0694694E1,-3.1138253E0,4.0067935E0,1.0916841E1,-1.2318959E1,-8.404464E0,-4.7432475E0,-9.02002E-1,2.6027927E0,6.0181637E0,9.399665E0,1.2726432E1,-6.8333226E-1,-1.1440308E1,-9.385716E0,-7.484529E0,-6.2263365E0,-3.866812E0,-1.742625E0,1.7849495E-1,1.1627544E0,3.4824643E0,5.3036175E0,7.3643994E0,8.573486E0,1.0794897E1,1.1789759E1,1.3478985E1,-5.951285E-1,-4.8049083E-1,-5.2632606E-1,-4.35218E-1,-3.9867488E-1,-3.20152E-1,-3.5191736E-1,-2.6129547E-1,-2.2957952E-1,-1.4509529E-1,-1.272796E-1,-5.1189285E-2,-6.69074E-3,1.0118353E-1,-8.408109E-2,7.1559146E-2,1.4026925E-1,2.1915281E-1,2.0862816E-1,2.862546E-1,3.2538208E-1,3.9700952E-1,3.9057907E-1,4.7519872E-1,4.1924053E-1,5.527207E-1,5.498672E-1,6.417301E-1,2.6599744E-1,6.7628926E-1],"categories":[],"categories_nodes":[],"categories_segments":[],"categories_sizes":[],"default_left":[0,0,0,0,0,0,0,0,0,0,0,0,0,0,0,0,0,0,0,0,0,0,0,0,0,0,0,0,0,0,0,0,0,0,0,0,0,0,0,0,0,0,0,0,0,0,0,0,0,0,0,0,0,0,0,0,0,0,0,0,0],"id":14,"left_children":[1,3,5,7,9,11,13,15,17,19,21,23,25,27,29,-1,31,33,35,37,39,41,43,45,47,49,51,53,55,57,59,-1,-1,-1,-1,-1,-1,-1,-1,-1,-1,-1,-1,-1,-1,-1,-1,-1,-1,-1,-1,-1,-1,-1,-1,-1,-1,-1,-1,-1,-1],"loss_changes":[2.0815056E5,2.9834312E4,2.2908945E4,3.794961E3,3.715042E3,2.6755732E3,2.5462266E3,5.6715625E2,3.2513086E2,7.480254E2,3.9905063E2,7.091372E2,3.3706445E2,5.206953E2,1.5124219E2,0E0,2.0377734E2,7.005078E1,7.110156E1,1.4112402E2,2.4962842E2,1.3996332E2,1.1149021E2,1.6656168E2,2.0051465E2,9.958008E1,1.3938965E1,1.6608984E2,2.8648438E1,2.775586E1,1.8539062E1,0E0,0E0,0E0,0E0,0E0,0E0,0E0,0E0,0E0,0E0,0E0,0E0,0E0,0E0,0E0,0E0,0E0,0E0,0E0,0E0,0E0,0E0,0E0,0E0,0E0,0E0,0E0,0E0,0E0,0E0],"parents":[2147483647,0,0,1,1,2,2,3,3,4,4,5,5,6,6,7,7,8,8,9,9,10,10,11,11,12,12,13,13,14,14,16,16,17,17,18,18,19,19,20,20,21,21,22,22,23,23,24,24,25,25,26,26,27,27,28,28,29,29,30,30],"right_children":[2,4,6,8,10,12,14,16,18,20,22,24,26,28,30,-1,32,34,36,38,40,42,44,46,48,50,52,54,56,58,60,-1,-1,-1,-1,-1,-1,-1,-1,-1,-1,-1,-1,-1,-1,-1,-1,-1,-1,-1,-1,-1,-1,-1,-1,-1,-1,-1,-1,-1,-1],"split_conditions":[8.17469E1,6.6153206E1,9.538407E1,5.945712E1,7.483549E1,8.9797646E1,1.0371607E2,5.3471973E1,6.311574E1,6.880487E1,7.897969E1,8.367013E1,9.467334E1,1.01487686E2,1.0661341E2,-6.8333226E-1,6.0042706E1,5.902737E1,6.880487E1,6.845879E1,7.361384E1,7.6671974E1,8.687859E1,7.45374E1,8.919786E1,8.756228E1,9.42686E1,9.905894E1,9.683547E1,1.0651521E2,9.440963E1,-5.951285E-1,-4.8049083E-1,-5.2632606E-1,-4.35218E-1,-3.9867488E-1,-3.20152E-1,-3.5191736E-1,-2.6129547E-1,-2.2957952E-1,-1.4509529E-1,-1.272796E-1,-5.1189285E-2,-6.69074E-3,1.0118353E-1,-8.408109E-2,7.1559146E-2,1.4026925E-1,2.1915281E-1,2.0862816E-1,2.862546E-1,3.2538208E-1,3.9700952E-1,3.9057907E-1,4.7519872E-1,4.1924053E-1,5.527207E-1,5.498672E-1,6.417301E-1,2.6599744E-1,6.7628926E-1],"split_indices":[0,0,0,0,0,0,0,0,1,1,1,1,1,1,0,0,1,2,1,2,2,2,1,1,1,1,2,0,0,1,1,0,0,0,0,0,0,0,0,0,0,0,0,0,0,0,0,0,0,0,0,0,0,0,0,0,0,0,0,0,0],"split_type":[0,0,0,0,0,0,0,0,0,0,0,0,0,0,0,0,0,0,0,0,0,0,0,0,0,0,0,0,0,0,0,0,0,0,0,0,0,0,0,0,0,0,0,0,0,0,0,0,0,0,0,0,0,0,0,0,0,0,0,0,0],"sum_hessian":[4E3,2.078E3,1.922E3,1.047E3,1.031E3,9.52E2,9.7E2,6.1E2,4.37E2,5.93E2,4.38E2,5.62E2,3.9E2,5.31E2,4.39E2,2.35E2,3.75E2,2.07E2,2.3E2,2.18E2,3.75E2,2.46E2,1.92E2,2.14E2,3.48E2,2.58E2,1.32E2,3.38E2,1.93E2,2.03E2,2.36E2,2.95E2,8E1,7.2E1,1.35E2,1.54E2,7.6E1,1.17E2,1.01E2,2.12E2,1.63E2,1.15E2,1.31E2,1.65E2,2.7E1,1.8E1,1.96E2,2.01E2,1.47E2,7.3E1,1.85E2,5.8E1,7.4E1,1.91E2,1.47E2,2.2E1,1.71E2,1.22E2,8.1E1,2E0,2.34E2],"tree_param":{"num_deleted":"0","num_feature":"4","num_nodes":"61","size_leaf_vector":"1"}},{"base_weights":[-4.0351794E-4,-7.1851497E0,6.539602E0,-1.0485349E1,-3.8774183E0,2.6822648E0,9.850356E0,-1.185648E1,-8.480739E0,-5.585251E0,-2.2144105E0,6.470044E-1,3.966062E0,7.577048E0,1.136702E1,-6.4999956E-1,-1.0994074E1,-4.7616997E-1,-7.748064E0,-7.3281026E0,-4.986832E0,-3.3279338E0,-1.3228168E0,-2.3680307E-1,1.5903862E0,2.7437596E0,4.8586836E0,6.1680927E0,8.315542E0,1.0349116E1,6.2750757E-1,-5.681163E-1,-4.561257E-1,-4.1092473E-1,-3.3067492E-1,-3.7181208E-1,-1.6984612E-1,-3.368873E-1,-2.264968E-1,-1.840392E-1,-1.07554965E-1,-8.884066E-2,3.092248E-4,-8.699566E-2,4.0063127E-3,5.2930485E-2,1.2331629E-1,3.4971308E-2,1.5236151E-1,1.3463916E-1,2.5805807E-1,2.3056006E-1,3.3158955E-1,3.9073804E-1,4.750247E-1,4.5952377E-1,5.627885E-1],"categories":[],"categories_nodes":[],"categories_segments":[],"categories_sizes":[],"default_left":[0,0,0,0,0,0,0,0,0,0,0,0,0,0,0,0,0,0,0,0,0,0,0,0,0,0,0,0,0,0,0,0,0,0,0,0,0,0,0,0,0,0,0,0,0,0,0,0,0,0,0,0,0,0,0,0,0],"id":15,"left_children":[1,3,5,7,9,11,13,15,17,19,21,23,25,27,29,-1,31,-1,33,35,37,39,41,43,45,47,49,51,53,55,-1,-1,-1,-1,-1,-1,-1,-1,-1,-1,-1,-1,-1,-1,-1,-1,-1,-1,-1,-1,-1,-1,-1,-1,-1,-1,-1],"loss_changes":[1.8804708E5,2.0776484E4,2.6728188E4,2.5215938E3,2.697125E3,2.5292974E3,3.799586E3,4.1328125E2,2.2491016E2,4.5364453E2,4.771106E2,3.138733E2,6.347549E2,4.210996E2,6.818281E2,0E0,1.2241016E2,0E0,7.1075195E1,2.4902344E1,2.5187305E2,8.136011E1,1.6352203E2,9.3033455E1,8.216547E1,1.5482886E2,2.1015869E2,8.492822E1,1.0080859E2,2.831328E2,0E0,0E0,0E0,0E0,0E0,0E0,0E0,0E0,0E0,0E0,0E0,0E0,0E0,0E0,0E0,0E0,0E0,0E0,0E0,0E0,0E0,0E0,0E0,0E0,0E0,0E0,0E0],"parents":[2147483647,0,0,1,1,2,2,3,3,4,4,5,5,6,6,7,7,8,8,9,9,10,10,11,11,12,12,13,13,14,14,16,16,18,18,19,19,20,20,21,21,22,22,23,23,24,24,25,25,26,26,27,27,28,28,29,29],"right_children":[2,4,6,8,10,12,14,16,18,20,22,24,26,28,30,-1,32,-1,34,36,38,40,42,44,46,48,50,52,54,56,-1,-1,-1,-1,-1,-1,-1,-1,-1,-1,-1,-1,-1,-1,-1,-1,-1,-1,-1,-1,-1,-1,-1,-1,-1,-1,-1],"split_conditions":[7.904773E1,6.4819466E1,9.321218E1,5.8714386E1,7.152758E1,8.4584816E1,9.983095E1,5.2987507E1,6.1243595E1,6.488734E1,7.4812485E1,8.181189E1,8.756228E1,9.467334E1,1.0539401E2,-6.4999956E-1,6.1384346E1,-4.7616997E-1,6.6355934E1,7.780435E1,6.2278084E1,7.635825E1,8.13356E1,7.399727E1,8.551897E1,7.9494286E1,8.019555E1,8.919786E1,1.015984E2,1.0138691E2,6.2750757E-1,-5.681163E-1,-4.561257E-1,-4.1092473E-1,-3.3067492E-1,-3.7181208E-1,-1.6984612E-1,-3.368873E-1,-2.264968E-1,-1.840392E-1,-1.07554965E-1,-8.884066E-2,3.092248E-4,-8.699566E-2,4.0063127E-3,5.2930485E-2,1.2331629E-1,3.4971308E-2,1.5236151E-1,1.3463916E-1,2.5805807E-1,2.3056006E-1,3.3158955E-1,3.9073804E-1,4.750247E-1,4.5952377E-1,5.627885E-1],"split_indices":[0,0,0,0,0,0,0,1,0,1,1,1,1,1,1,0,1,0,1,2,2,0,1,1,2,1,2,1,1,2,0,0,0,0,0,0,0,0,0,0,0,0,0,0,0,0,0,0,0,0,0,0,0,0,0,0,0],"split_type":[0,0,0,0,0,0,0,0,0,0,0,0,0,0,0,0,0,0,0,0,0,0,0,0,0,0,0,0,0,0,0,0,0,0,0,0,0,0,0,0,0,0,0,0,0,0,0,0,0,0,0,0,0,0,0,0,0],"sum_hessian":[4E3,1.906E3,2.094E3,9.53E2,9.53E2,9.68E2,1.126E3,5.63E2,3.9E2,4.69E2,4.84E2,3.75E2,5.93E2,4.53E2,6.73E2,2.36E2,3.27E2,1.56E2,2.34E2,1.17E2,3.52E2,2.14E2,2.7E2,1.94E2,1.81E2,2.52E2,3.41E2,1.59E2,2.94E2,3.67E2,3.06E2,2.69E2,5.8E1,1.61E2,7.3E1,1.13E2,4E0,7E1,2.82E2,1.63E2,5.1E1,2.01E2,6.9E1,3.3E1,1.61E2,1.14E2,6.7E1,3.3E1,2.19E2,4.3E1,2.98E2,3.9E1,1.2E2,2.12E2,8.2E1,1.66E2,2.01E2],"tree_param":{"num_deleted":"0","num_feature":"4","num_nodes":"57","size_leaf_vector":"1"}},{"base_weights":[-5.4004614E-4,-6.219387E0,6.8245473E0,-9.366481E0,-2.4416325E0,3.6723647E0,9.862573E0,-1.1124777E1,-7.329478E0,-3.9483423E0,-7.768823E-1,2.3974524E0,5.449806E0,8.481094E0,1.151049E1,-6.156799E-1,-1.0267385E1,-8.237732E0,-6.2798486E0,-4.8016667E0,-2.9175448E0,-1.4133551E0,3.6806834E-1,1.0976112E0,3.1472232E0,4.8041687E0,6.666124E0,7.230332E0,9.2431E0,4.5916238E-1,1.1752371E1,-5.508276E-1,-4.6448836E-1,-4.6392217E-1,-3.842487E-1,-3.3070147E-1,-2.4198234E-1,-2.7987388E-1,-2.0730594E-1,-1.8733484E-1,-1.0598085E-1,-1.0817746E-1,-3.9899614E-2,2.7747715E-3,9.365672E-2,-5.9737437E-3,8.9363806E-2,1.11919895E-1,1.8473943E-1,2.0580848E-1,2.6933974E-1,2.932061E-1,3.604075E-1,2.1237402E-1,3.696472E-1,4.025743E-1,4.9300233E-1,4.8153305E-1,5.98545E-1],"categories":[],"categories_nodes":[],"categories_segments":[],"categories_sizes":[],"default_left":[0,0,0,0,0,0,0,0,0,0,0,0,0,0,0,0,0,0,0,0,0,0,0,0,0,0,0,0,0,0,0,0,0,0,0,0,0,0,0,0,0,0,0,0,0,0,0,0,0,0,0,0,0,0,0,0,0,0,0],"id":16,"left_children":[1,3,5,7,9,11,13,15,17,19,21,23,25,27,29,-1,31,33,35,37,39,41,43,45,47,49,51,53,55,-1,57,-1,-1,-1,-1,-1,-1,-1,-1,-1,-1,-1,-1,-1,-1,-1,-1,-1,-1,-1,-1,-1,-1,-1,-1,-1,-1,-1,-1],"loss_changes":[1.698616E5,2.4872586E4,1.8235578E4,4.008711E3,2.3873384E3,2.1125186E3,2.1129219E3,4.9635938E2,4.5543945E2,4.2579346E2,3.3136368E2,5.3061694E2,2.7502734E2,4.4021094E2,1.3975781E2,0E0,1.6205469E2,9.091992E1,8.8793945E1,1.1869238E2,1.4356555E2,1.3307281E2,7.657823E1,1.697686E2,1.6441113E2,8.1646484E1,1.5546387E1,6.8518555E1,1.6101172E2,0E0,6.785156E1,0E0,0E0,0E0,0E0,0E0,0E0,0E0,0E0,0E0,0E0,0E0,0E0,0E0,0E0,0E0,0E0,0E0,0E0,0E0,0E0,0E0,0E0,0E0,0E0,0E0,0E0,0E0,0E0],"parents":[2147483647,0,0,1,1,2,2,3,3,4,4,5,5,6,6,7,7,8,8,9,9,10,10,11,11,12,12,13,13,14,14,16,16,17,17,18,18,19,19,20,20,21,21,22,22,23,23,24,24,25,25,26,26,27,27,28,28,30,30],"right_children":[2,4,6,8,10,12,14,16,18,20,22,24,26,28,30,-1,32,34,36,38,40,42,44,46,48,50,52,54,56,-1,58,-1,-1,-1,-1,-1,-1,-1,-1,-1,-1,-1,-1,-1,-1,-1,-1,-1,-1,-1,-1,-1,-1,-1,-1,-1,-1,-1,-1],"split_conditions":[8.193583E1,6.747816E1,9.538407E1,5.945712E1,7.483549E1,8.9797646E1,1.0371607E2,5.3793953E1,6.46681E1,7.195608E1,8.051599E1,8.367013E1,9.467334E1,9.7506454E1,1.0037175E2,-6.156799E-1,5.6617947E1,5.902737E1,7.313823E1,6.845879E1,7.350115E1,7.6671974E1,8.687859E1,7.9381454E1,8.434475E1,9.19453E1,9.42686E1,8.780549E1,9.883683E1,4.5916238E-1,9.693176E1,-5.508276E-1,-4.6448836E-1,-4.6392217E-1,-3.842487E-1,-3.3070147E-1,-2.4198234E-1,-2.7987388E-1,-2.0730594E-1,-1.8733484E-1,-1.0598085E-1,-1.0817746E-1,-3.9899614E-2,2.7747715E-3,9.365672E-2,-5.9737437E-3,8.9363806E-2,1.11919895E-1,1.8473943E-1,2.0580848E-1,2.6933974E-1,2.932061E-1,3.604075E-1,2.1237402E-1,3.696472E-1,4.025743E-1,4.9300233E-1,4.8153305E-1,5.98545E-1],"split_indices":[0,0,0,0,0,0,0,0,1,1,1,1,1,1,1,0,1,2,2,2,2,2,1,2,2,0,2,1,0,0,2,0,0,0,0,0,0,0,0,0,0,0,0,0,0,0,0,0,0,0,0,0,0,0,0,0,0,0,0],"split_type":[0,0,0,0,0,0,0,0,0,0,0,0,0,0,0,0,0,0,0,0,0,0,0,0,0,0,0,0,0,0,0,0,0,0,0,0,0,0,0,0,0,0,0,0,0,0,0,0,0,0,0,0,0,0,0,0,0,0,0],"sum_hessian":[4E3,2.093E3,1.907E3,1.141E3,9.52E2,9.37E2,9.7E2,6.1E2,5.31E2,4.99E2,4.53E2,5.47E2,3.9E2,5.31E2,4.39E2,2.5E2,3.6E2,2.81E2,2.5E2,2.71E2,2.28E2,2.91E2,1.62E2,2.01E2,3.46E2,2.58E2,1.32E2,2.05E2,3.26E2,4.5E1,3.94E2,1.98E2,1.62E2,9.2E1,1.89E2,2E2,5E1,1.19E2,1.52E2,1.1E2,1.18E2,1.3E2,1.61E2,1.35E2,2.7E1,7.3E1,1.28E2,1.32E2,2.14E2,1.22E2,1.36E2,5.8E1,7.4E1,1.2E1,1.93E2,1.16E2,2.1E2,4.1E1,3.53E2],"tree_param":{"num_deleted":"0","num_feature":"4","num_nodes":"59","size_leaf_vector":"1"}},{"base_weights":[-3.526216E-4,-6.4909472E0,5.9077926E0,-9.89712E0,-3.8679552E0,2.7680354E0,9.226801E0,-1.1048987E1,-8.473129E0,-5.6406803E0,-2.2332008E0,1.0469576E0,4.340519E0,7.8694935E0,1.0888988E1,-1.1614136E1,-9.913144E0,-9.436505E0,-7.704251E0,-6.467134E0,-4.725191E0,-3.0199537E0,-1.0553643E0,-3.3962914E-1,1.6939459E0,3.2889616E0,5.2914705E0,6.7522793E0,8.706374E0,1.0037157E1,1.1630177E1,-5.95137E-1,-4.9915013E-1,-4.9751115E-1,-1.0229416E-1,-4.8091647E-1,-2.3670506E-1,-4.1534376E-1,-3.3822662E-1,-3.8193485E-1,-3.0358797E-1,-2.4747276E-1,-1.5807392E-1,-2.0638596E-1,-1.3149615E-1,-5.9974503E-2,1.2844793E-1,-4.9765762E-2,1.9337729E-2,5.2822646E-2,1.2776932E-1,9.989123E-2,1.8831193E-1,2.4070136E-1,3.19512E-1,2.340279E-1,3.462419E-1,3.8192844E-1,4.67751E-1,4.4593427E-1,5.2904224E-1,2.2650795E-1,5.835663E-1],"categories":[],"categories_nodes":[],"categories_segments":[],"categories_sizes":[],"default_left":[0,0,0,0,0,0,0,0,0,0,0,0,0,0,0,0,0,0,0,0,0,0,0,0,0,0,0,0,0,0,0,0,0,0,0,0,0,0,0,0,0,0,0,0,0,0,0,0,0,0,0,0,0,0,0,0,0,0,0,0,0,0,0],"id":17,"left_children":[1,3,5,7,9,11,13,15,17,19,21,23,25,27,29,31,33,35,37,39,41,43,45,47,49,51,53,55,57,59,61,-1,-1,-1,-1,-1,-1,-1,-1,-1,-1,-1,-1,-1,-1,-1,-1,-1,-1,-1,-1,-1,-1,-1,-1,-1,-1,-1,-1,-1,-1,-1,-1],"loss_changes":[1.5346619E5,1.6999555E4,2.180621E4,1.2661484E3,3.1143115E3,2.912918E3,2.2110078E3,1.769375E2,2.0506836E2,3.6060938E2,5.1852637E2,4.634817E2,5.4558496E2,4.6853906E2,1.7053906E2,2.1460938E1,2.5732422E1,9.2978516E1,6.499609E1,7.822266E1,7.167236E1,1.3474927E2,1.2165677E2,7.8971085E1,1.9060553E2,1.5885791E2,1.234707E2,5.553125E1,1.4948828E2,3.880664E1,1.6367188E1,0E0,0E0,0E0,0E0,0E0,0E0,0E0,0E0,0E0,0E0,0E0,0E0,0E0,0E0,0E0,0E0,0E0,0E0,0E0,0E0,0E0,0E0,0E0,0E0,0E0,0E0,0E0,0E0,0E0,0E0,0E0,0E0],"parents":[2147483647,0,0,1,1,2,2,3,3,4,4,5,5,6,6,7,7,8,8,9,9,10,10,11,11,12,12,13,13,14,14,15,15,16,16,17,17,18,18,19,19,20,20,21,21,22,22,23,23,24,24,25,25,26,26,27,27,28,28,29,29,30,30],"right_children":[2,4,6,8,10,12,14,16,18,20,22,24,26,28,30,32,34,36,38,40,42,44,46,48,50,52,54,56,58,60,62,-1,-1,-1,-1,-1,-1,-1,-1,-1,-1,-1,-1,-1,-1,-1,-1,-1,-1,-1,-1,-1,-1,-1,-1,-1,-1,-1,-1,-1,-1,-1,-1],"split_conditions":[7.904773E1,6.309379E1,9.462615E1,5.6888367E1,7.049724E1,8.658787E1,1.0342963E2,5.556519E1,5.7449688E1,6.750708E1,7.6217545E1,8.006292E1,9.012882E1,9.776572E1,1.0661341E2,6.2109882E1,8.071815E1,6.798325E1,6.0715008E1,6.1148266E1,7.45374E1,6.920382E1,8.6593315E1,8.019555E1,8.551897E1,8.367013E1,9.674374E1,8.919786E1,9.883683E1,1.0138691E2,9.440963E1,-5.95137E-1,-4.9915013E-1,-4.9751115E-1,-1.0229416E-1,-4.8091647E-1,-2.3670506E-1,-4.1534376E-1,-3.3822662E-1,-3.8193485E-1,-3.0358797E-1,-2.4747276E-1,-1.5807392E-1,-2.0638596E-1,-1.3149615E-1,-5.9974503E-2,1.2844793E-1,-4.9765762E-2,1.9337729E-2,5.2822646E-2,1.2776932E-1,9.989123E-2,1.8831193E-1,2.4070136E-1,3.19512E-1,2.340279E-1,3.462419E-1,3.8192844E-1,4.67751E-1,4.4593427E-1,5.2904224E-1,2.2650795E-1,5.835663E-1],"split_indices":[0,0,0,1,0,0,0,0,2,1,1,1,1,1,0,2,2,1,0,1,1,1,1,2,2,1,1,1,0,2,1,0,0,0,0,0,0,0,0,0,0,0,0,0,0,0,0,0,0,0,0,0,0,0,0,0,0,0,0,0,0,0,0],"split_type":[0,0,0,0,0,0,0,0,0,0,0,0,0,0,0,0,0,0,0,0,0,0,0,0,0,0,0,0,0,0,0,0,0,0,0,0,0,0,0,0,0,0,0,0,0,0,0,0,0,0,0,0,0,0,0,0,0,0,0,0,0,0,0],"sum_hessian":[4E3,1.906E3,2.094E3,8.28E2,1.078E3,1.077E3,1.017E3,4.54E2,3.74E2,5.16E2,5.62E2,5.15E2,5.62E2,5.63E2,4.54E2,2.97E2,1.57E2,1.61E2,2.13E2,2.68E2,2.48E2,3.36E2,2.26E2,1.64E2,3.51E2,2.69E2,2.93E2,2.45E2,3.18E2,2.18E2,2.36E2,2.47E2,5E1,1.56E2,1E0,1.54E2,7E0,1.25E2,8.8E1,6.3E1,2.05E2,2.15E2,3.3E1,8.5E1,2.51E2,2.18E2,8E0,8.6E1,7.8E1,2.03E2,1.48E2,7.4E1,1.95E2,2.08E2,8.5E1,2.1E1,2.24E2,1.25E2,1.93E2,7.7E1,1.41E2,2E0,2.34E2],"tree_param":{"num_deleted":"0","num_feature":"4","num_nodes":"63","size_leaf_vector":"1"}},{"base_weights":[-4.1291787E-4,-5.6618443E0,6.120292E0,-8.78182E0,-2.5840988E0,3.2726028E0,8.908889E0,-1.0182405E1,-7.0788097E0,-4.138495E0,-9.7960585E-1,1.986663E0,4.7800736E0,7.3077745E0,1.0070944E1,-5.748967E-1,-9.575853E0,-7.936215E0,-6.3025126E0,-4.746704E0,-2.8379014E0,-1.6956885E0,1.0970184E-1,3.4039685E-1,2.4526677E0,3.3576384E0,5.2880716E0,6.336734E0,8.118327E0,8.918702E0,1.0829622E1,-4.9798313E-1,-3.8174185E-1,-4.3640015E-1,-3.6688504E-1,-3.409531E-1,-2.659679E-1,-3.1060785E-1,-2.1800569E-1,-1.698047E-1,-1.1692957E-1,-1.2061234E-1,-4.910017E-2,-8.135654E-3,8.889916E-2,-7.843526E-2,3.554177E-2,1.0878952E-1,2.157787E-1,1.1190249E-1,2.0336263E-1,2.5141558E-1,3.545138E-1,1.6445778E-1,3.2430553E-1,3.65718E-1,4.3497095E-1,2.6487574E-1,4.521664E-1,4.6579608E-1,5.5575E-1],"categories":[],"categories_nodes":[],"categories_segments":[],"categories_sizes":[],"default_left":[0,0,0,0,0,0,0,0,0,0,0,0,0,0,0,0,0,0,0,0,0,0,0,0,0,0,0,0,0,0,0,0,0,0,0,0,0,0,0,0,0,0,0,0,0,0,0,0,0,0,0,0,0,0,0,0,0,0,0,0,0],"id":18,"left_children":[1,3,5,7,9,11,13,15,17,19,21,23,25,27,29,-1,31,33,35,37,39,41,43,45,47,49,51,53,55,57,59,-1,-1,-1,-1,-1,-1,-1,-1,-1,-1,-1,-1,-1,-1,-1,-1,-1,-1,-1,-1,-1,-1,-1,-1,-1,-1,-1,-1,-1,-1],"loss_changes":[1.3867711E5,1.9940883E4,1.52415E4,2.3894531E3,2.6096763E3,1.8379102E3,1.7330312E3,3.399375E2,2.621504E2,4.0735938E2,4.0346375E2,3.9502344E2,2.9874023E2,2.7283398E2,3.9295703E2,0E0,2.1598828E2,3.9740234E1,9.1197266E1,1.7743213E2,3.9996338E1,1.5718701E2,9.390903E1,8.2443665E1,1.979607E2,8.464551E1,1.1462109E2,6.607178E1,3.9615234E1,5.498828E1,4.030078E1,0E0,0E0,0E0,0E0,0E0,0E0,0E0,0E0,0E0,0E0,0E0,0E0,0E0,0E0,0E0,0E0,0E0,0E0,0E0,0E0,0E0,0E0,0E0,0E0,0E0,0E0,0E0,0E0,0E0,0E0],"parents":[2147483647,0,0,1,1,2,2,3,3,4,4,5,5,6,6,7,7,8,8,9,9,10,10,11,11,12,12,13,13,14,14,16,16,17,17,18,18,19,19,20,20,21,21,22,22,23,23,24,24,25,25,26,26,27,27,28,28,29,29,30,30],"right_children":[2,4,6,8,10,12,14,16,18,20,22,24,26,28,30,-1,32,34,36,38,40,42,44,46,48,50,52,54,56,58,60,-1,-1,-1,-1,-1,-1,-1,-1,-1,-1,-1,-1,-1,-1,-1,-1,-1,-1,-1,-1,-1,-1,-1,-1,-1,-1,-1,-1,-1,-1],"split_conditions":[8.17469E1,6.596015E1,9.538407E1,5.8714386E1,7.3480576E1,8.902776E1,1.01487686E2,5.2230034E1,6.2282444E1,7.253617E1,7.897969E1,8.072082E1,8.8064095E1,9.905894E1,1.04293236E2,-5.748967E-1,6.0042706E1,5.902737E1,6.690919E1,6.3870247E1,7.248605E1,7.6671974E1,8.687859E1,7.45374E1,9.654251E1,9.072564E1,9.978936E1,8.867712E1,9.7506454E1,8.434475E1,9.935247E1,-4.9798313E-1,-3.8174185E-1,-4.3640015E-1,-3.6688504E-1,-3.409531E-1,-2.659679E-1,-3.1060785E-1,-2.1800569E-1,-1.698047E-1,-1.1692957E-1,-1.2061234E-1,-4.910017E-2,-8.135654E-3,8.889916E-2,-7.843526E-2,3.554177E-2,1.0878952E-1,2.157787E-1,1.1190249E-1,2.0336263E-1,2.5141558E-1,3.545138E-1,1.6445778E-1,3.2430553E-1,3.65718E-1,4.3497095E-1,2.6487574E-1,4.521664E-1,4.6579608E-1,5.5575E-1],"split_indices":[0,0,0,0,0,0,1,0,0,1,1,1,1,0,0,0,1,2,1,1,2,2,1,1,2,0,1,1,1,2,2,0,0,0,0,0,0,0,0,0,0,0,0,0,0,0,0,0,0,0,0,0,0,0,0,0,0,0,0,0,0],"split_type":[0,0,0,0,0,0,0,0,0,0,0,0,0,0,0,0,0,0,0,0,0,0,0,0,0,0,0,0,0,0,0,0,0,0,0,0,0,0,0,0,0,0,0,0,0,0,0,0,0,0,0,0,0,0,0,0,0,0,0,0,0],"sum_hessian":[4E3,2.078E3,1.922E3,1.031E3,1.047E3,9.52E2,9.7E2,5.63E2,4.68E2,5.31E2,5.16E2,5.15E2,4.37E2,4.11E2,5.59E2,1.72E2,3.91E2,2.18E2,2.5E2,3.6E2,1.71E2,3.11E2,2.05E2,1.14E2,4.01E2,1.17E2,3.2E2,1.91E2,2.2E2,2.27E2,3.32E2,3.23E2,6.8E1,8.8E1,1.3E2,1.6E2,9E1,7.2E1,2.88E2,7.8E1,9.3E1,1.54E2,1.57E2,1.77E2,2.8E1,1.8E1,9.6E1,3.51E2,5E1,4.7E1,7E1,2.83E2,3.7E1,1E1,1.81E2,9.8E1,1.22E2,9E0,2.18E2,5.8E1,2.74E2],"tree_param":{"num_deleted":"0","num_feature":"4","num_nodes":"61","size_leaf_vector":"1"}},{"base_weights":[-2.76833E-4,-6.054639E0,5.173145E0,-8.988403E0,-3.7324867E0,1.8465425E0,7.8826747E0,-1.0004986E1,-7.6914406E0,-5.4433413E0,-2.4646637E0,3.9140537E-1,3.0438333E0,5.8814654E0,9.173499E0,-1.0502072E1,-4.4956446E-1,-8.411831E0,-6.864744E0,-6.0750422E0,-4.5548267E0,-3.3198617E0,-1.5924716E0,-4.4091338E-1,1.0461957E0,2.192263E0,3.8808138E0,4.789353E0,6.527064E0,8.309663E0,1.0260508E1,-5.341519E-1,-4.145022E-1,-4.2858323E-1,-2.1313755E-1,-3.4577578E-1,-8.328184E-2,-3.5243326E-1,-2.8504625E-1,-2.4336982E-1,-1.7010783E-1,-2.0000212E-1,-1.4303122E-1,-1.1714818E-1,-5.2267075E-2,-1.3278578E-1,-1.2694851E-2,-3.6169842E-3,6.919573E-2,9.9711165E-2,2.2038808E-1,9.412889E-2,2.0772855E-1,1.0821076E-1,2.4746536E-1,3.1016487E-1,3.7326238E-1,3.674145E-1,4.5796415E-1,4.638763E-1,5.2888966E-1],"categories":[],"categories_nodes":[],"categories_segments":[],"categories_sizes":[],"default_left":[0,0,0,0,0,0,0,0,0,0,0,0,0,0,0,0,0,0,0,0,0,0,0,0,0,0,0,0,0,0,0,0,0,0,0,0,0,0,0,0,0,0,0,0,0,0,0,0,0,0,0,0,0,0,0,0,0,0,0,0,0],"id":19,"left_children":[1,3,5,7,9,11,13,15,17,19,21,23,25,27,29,31,-1,33,35,37,39,41,43,45,47,49,51,53,55,57,59,-1,-1,-1,-1,-1,-1,-1,-1,-1,-1,-1,-1,-1,-1,-1,-1,-1,-1,-1,-1,-1,-1,-1,-1,-1,-1,-1,-1,-1,-1],"loss_changes":[1.2534972E5,1.2528977E4,1.9436637E4,9.9628125E2,2.2228867E3,1.6887639E3,3.0174844E3,1.3383594E2,1.578418E2,2.1816797E2,4.3777588E2,2.3971378E2,3.7067432E2,2.9941602E2,5.917578E2,3.0726562E1,0E0,8.879785E1,3.4411133E1,5.1970703E1,5.0454346E1,8.1954346E1,1.1909338E2,7.9681335E1,9.3026764E1,1.0791919E2,1.3823608E2,6.403076E1,4.2385742E1,2.6513477E2,1.0546875E-1,0E0,0E0,0E0,0E0,0E0,0E0,0E0,0E0,0E0,0E0,0E0,0E0,0E0,0E0,0E0,0E0,0E0,0E0,0E0,0E0,0E0,0E0,0E0,0E0,0E0,0E0,0E0,0E0,0E0,0E0],"parents":[2147483647,0,0,1,1,2,2,3,3,4,4,5,5,6,6,7,7,8,8,9,9,10,10,11,11,12,12,13,13,14,14,15,15,17,17,18,18,19,19,20,20,21,21,22,22,23,23,24,24,25,25,26,26,27,27,28,28,29,29,30,30],"right_children":[2,4,6,8,10,12,14,16,18,20,22,24,26,28,30,32,-1,34,36,38,40,42,44,46,48,50,52,54,56,58,60,-1,-1,-1,-1,-1,-1,-1,-1,-1,-1,-1,-1,-1,-1,-1,-1,-1,-1,-1,-1,-1,-1,-1,-1,-1,-1,-1,-1,-1,-1],"split_conditions":[7.806855E1,6.2873997E1,9.24172E1,5.6888367E1,6.907972E1,8.4584816E1,9.905894E1,5.556519E1,5.934799E1,6.750708E1,7.3749695E1,8.051599E1,8.8064095E1,9.440963E1,1.0539401E2,6.51917E1,-4.4956446E-1,6.798325E1,7.3252174E1,6.1148266E1,7.2880295E1,6.920382E1,7.421834E1,7.0931656E1,7.554232E1,9.861533E1,8.019555E1,8.553592E1,1.015984E2,1.0138691E2,1.0202167E2,-5.341519E-1,-4.145022E-1,-4.2858323E-1,-2.1313755E-1,-3.4577578E-1,-8.328184E-2,-3.5243326E-1,-2.8504625E-1,-2.4336982E-1,-1.7010783E-1,-2.0000212E-1,-1.4303122E-1,-1.1714818E-1,-5.2267075E-2,-1.3278578E-1,-1.2694851E-2,-3.6169842E-3,6.919573E-2,9.9711165E-2,2.2038808E-1,9.412889E-2,2.0772855E-1,1.0821076E-1,2.4746536E-1,3.1016487E-1,3.7326238E-1,3.674145E-1,4.5796415E-1,4.638763E-1,5.2888966E-1],"split_indices":[0,0,0,1,0,0,0,0,2,1,1,1,1,1,1,2,0,1,1,1,1,1,0,1,2,2,2,1,1,2,2,0,0,0,0,0,0,0,0,0,0,0,0,0,0,0,0,0,0,0,0,0,0,0,0,0,0,0,0,0,0],"split_type":[0,0,0,0,0,0,0,0,0,0,0,0,0,0,0,0,0,0,0,0,0,0,0,0,0,0,0,0,0,0,0,0,0,0,0,0,0,0,0,0,0,0,0,0,0,0,0,0,0,0,0,0,0,0,0,0,0,0,0,0,0],"sum_hessian":[4E3,1.843E3,2.157E3,8.13E2,1.03E3,9.69E2,1.188E3,4.52E2,3.61E2,4.37E2,5.93E2,4.38E2,5.31E2,4.68E2,7.2E2,2.97E2,1.55E2,1.88E2,1.73E2,2.52E2,1.85E2,2.98E2,2.95E2,1.93E2,2.45E2,2.65E2,2.66E2,1.77E2,2.91E2,4.06E2,3.14E2,2.71E2,2.6E1,1.8E2,8E0,1.71E2,2E0,6.5E1,1.87E2,1.43E2,4.2E1,1.17E2,1.81E2,1.23E2,1.72E2,1.4E1,1.79E2,5.7E1,1.88E2,2.45E2,2E1,3.3E1,2.33E2,1.1E1,1.66E2,2.22E2,6.9E1,1.95E2,2.11E2,8.4E1,2.3E2],"tree_param":{"num_deleted":"0","num_feature":"4","num_nodes":"61","size_leaf_vector":"1"}},{"base_weights":[-4.2100681E-4,-5.754093E0,4.916063E0,-8.542016E0,-3.547378E0,1.7547748E0,7.4909434E0,-9.507824E0,-7.309826E0,-5.1735725E0,-2.3422928E0,3.7165186E-1,2.892813E0,5.784558E0,8.85919E0,-5.1275074E-1,-8.865643E0,-8.593678E0,-6.8661294E0,-5.773808E0,-4.329309E0,-3.1550167E0,-1.5134188E0,-4.1961744E-1,9.941502E-1,2.2153893E0,3.8508868E0,4.7035756E0,6.396095E0,8.144747E0,9.977916E0,-4.6352625E-1,-3.9590666E-1,-4.3436828E-1,-1.5061061E-1,-3.660368E-1,-2.95132E-1,-3.3507866E-1,-2.7086958E-1,-2.274723E-1,-1.3998196E-1,-1.9008665E-1,-1.3591911E-1,-1.1133796E-1,-4.9668737E-2,-1.2658928E-1,-1.2063611E-2,2.862565E-2,9.229864E-2,5.3313073E-2,1.295334E-1,1.7912766E-1,2.6273754E-1,1.0939085E-1,2.4278784E-1,3.0074364E-1,3.6877534E-1,3.4069356E-1,4.2808777E-1,2.800316E-1,5.0219256E-1],"categories":[],"categories_nodes":[],"categories_segments":[],"categories_sizes":[],"default_left":[0,0,0,0,0,0,0,0,0,0,0,0,0,0,0,0,0,0,0,0,0,0,0,0,0,0,0,0,0,0,0,0,0,0,0,0,0,0,0,0,0,0,0,0,0,0,0,0,0,0,0,0,0,0,0,0,0,0,0,0,0],"id":20,"left_children":[1,3,5,7,9,11,13,15,17,19,21,23,25,27,29,-1,31,33,35,37,39,41,43,45,47,49,51,53,55,57,59,-1,-1,-1,-1,-1,-1,-1,-1,-1,-1,-1,-1,-1,-1,-1,-1,-1,-1,-1,-1,-1,-1,-1,-1,-1,-1,-1,-1,-1,-1],"loss_changes":[1.1320792E5,1.1314262E4,1.7552848E4,8.992031E2,2.0083359E3,1.5257498E3,2.7247734E3,1.2644922E2,1.4720508E2,1.9696387E2,3.9537085E2,2.166527E2,3.3674854E2,3.2159766E2,4.4465234E2,0E0,2.2884766E1,2.0370605E1,7.6802734E1,4.7353516E1,4.9896484E1,7.409668E1,1.07594666E2,7.2467995E1,8.7296524E1,1.3264807E2,6.367285E1,6.441553E1,8.146387E1,1.6753906E2,1.6478516E1,0E0,0E0,0E0,0E0,0E0,0E0,0E0,0E0,0E0,0E0,0E0,0E0,0E0,0E0,0E0,0E0,0E0,0E0,0E0,0E0,0E0,0E0,0E0,0E0,0E0,0E0,0E0,0E0,0E0,0E0],"parents":[2147483647,0,0,1,1,2,2,3,3,4,4,5,5,6,6,7,7,8,8,9,9,10,10,11,11,12,12,13,13,14,14,16,16,17,17,18,18,19,19,20,20,21,21,22,22,23,23,24,24,25,25,26,26,27,27,28,28,29,29,30,30],"right_children":[2,4,6,8,10,12,14,16,18,20,22,24,26,28,30,-1,32,34,36,38,40,42,44,46,48,50,52,54,56,58,60,-1,-1,-1,-1,-1,-1,-1,-1,-1,-1,-1,-1,-1,-1,-1,-1,-1,-1,-1,-1,-1,-1,-1,-1,-1,-1,-1,-1,-1,-1],"split_conditions":[7.806855E1,6.2873997E1,9.24172E1,5.6888367E1,6.907972E1,8.4584816E1,1.0003263E2,5.190675E1,5.349301E1,6.750708E1,7.3749695E1,8.051599E1,8.946696E1,9.440963E1,1.06382355E2,-5.1275074E-1,5.962057E1,6.715682E1,6.0715008E1,6.1148266E1,7.805766E1,6.920382E1,7.421834E1,7.0931656E1,8.551897E1,8.019555E1,9.709531E1,8.553592E1,1.015984E2,9.945919E1,9.1110725E1,-4.6352625E-1,-3.9590666E-1,-4.3436828E-1,-1.5061061E-1,-3.660368E-1,-2.95132E-1,-3.3507866E-1,-2.7086958E-1,-2.274723E-1,-1.3998196E-1,-1.9008665E-1,-1.3591911E-1,-1.1133796E-1,-4.9668737E-2,-1.2658928E-1,-1.2063611E-2,2.862565E-2,9.229864E-2,5.3313073E-2,1.295334E-1,1.7912766E-1,2.6273754E-1,1.0939085E-1,2.4278784E-1,3.0074364E-1,3.6877534E-1,3.4069356E-1,4.2808777E-1,2.800316E-1,5.0219256E-1],"split_indices":[0,0,0,1,0,0,0,1,2,1,1,1,1,1,0,0,2,1,0,1,2,1,0,1,2,2,1,1,1,1,2,0,0,0,0,0,0,0,0,0,0,0,0,0,0,0,0,0,0,0,0,0,0,0,0,0,0,0,0,0,0],"split_type":[0,0,0,0,0,0,0,0,0,0,0,0,0,0,0,0,0,0,0,0,0,0,0,0,0,0,0,0,0,0,0,0,0,0,0,0,0,0,0,0,0,0,0,0,0,0,0,0,0,0,0,0,0,0,0,0,0,0,0,0,0],"sum_hessian":[4E3,1.843E3,2.157E3,8.13E2,1.03E3,9.69E2,1.188E3,4.52E2,3.61E2,4.37E2,5.93E2,4.38E2,5.31E2,5.31E2,6.57E2,2.02E2,2.5E2,8.8E1,2.73E2,2.52E2,1.85E2,2.98E2,2.95E2,1.93E2,2.45E2,3.13E2,2.18E2,1.95E2,3.36E2,4.06E2,2.51E2,1.69E2,8.1E1,8.6E1,2E0,1.81E2,9.2E1,6.5E1,1.87E2,1.6E2,2.5E1,1.17E2,1.81E2,1.23E2,1.72E2,1.4E1,1.79E2,1.65E2,8E1,7.8E1,2.35E2,1.86E2,3.2E1,1.2E1,1.83E2,2.47E2,8.9E1,1.01E2,3.05E2,5E0,2.46E2],"tree_param":{"num_deleted":"0","num_feature":"4","num_nodes":"61","size_leaf_vector":"1"}},{"base_weights":[-6.24799E-4,-4.863125E0,5.2563376E0,-7.5022273E0,-2.178394E0,2.8088977E0,7.652994E0,-8.705149E0,-5.9694443E0,-3.5109928E0,-8.441594E-1,1.6988994E0,4.110154E0,6.5693884E0,8.945779E0,-9.425087E0,-7.709592E0,-7.0664225E0,-5.3170524E0,-4.0195003E0,-2.3749986E0,-1.7867669E0,-2.2409967E-1,9.375364E-1,2.48665E0,3.4793608E0,4.9460707E0,5.9132066E0,7.4874063E0,8.216773E0,9.535532E0,-4.837203E-1,-4.0605688E-1,-3.933232E-1,-2.4569373E-1,-3.6456212E-1,-2.8028306E-1,-2.7295128E-1,-1.6535777E-1,-2.3627476E-1,-1.6573505E-1,-1.5488496E-1,-9.975872E-2,-1.1579815E-1,-5.6227636E-2,-2.8824313E-2,4.0471617E-2,-6.1994024E-2,5.7030346E-2,1.13378026E-1,2.1970224E-1,1.4062764E-1,2.0542836E-1,2.3038912E-1,3.0711788E-1,2.8490615E-1,3.9981955E-1,3.2415178E-1,3.97926E-1,3.7921843E-1,4.532588E-1,1.1010666E-1,4.778637E-1],"categories":[],"categories_nodes":[],"categories_segments":[],"categories_sizes":[],"default_left":[0,0,0,0,0,0,0,0,0,0,0,0,0,0,0,0,0,0,0,0,0,0,0,0,0,0,0,0,0,0,0,0,0,0,0,0,0,0,0,0,0,0,0,0,0,0,0,0,0,0,0,0,0,0,0,0,0,0,0,0,0,0,0],"id":21,"left_children":[1,3,5,7,9,11,13,15,17,19,21,23,25,27,29,31,33,35,37,39,41,43,45,47,49,51,53,55,57,59,61,-1,-1,-1,-1,-1,-1,-1,-1,-1,-1,-1,-1,-1,-1,-1,-1,-1,-1,-1,-1,-1,-1,-1,-1,-1,-1,-1,-1,-1,-1,-1,-1],"loss_changes":[1.0229905E5,1.4713953E4,1.1258191E4,1.8803516E3,1.8319321E3,1.369523E3,1.3014766E3,3.466328E2,2.9449414E2,2.8852686E2,3.0177213E2,3.0714697E2,2.1374414E2,2.7619727E2,1.1082031E2,3.0339844E1,7.142676E1,1.4958008E1,6.6125E1,1.60979E2,3.828839E1,6.923596E1,1.144621E2,1.1814685E2,9.576257E1,9.459326E1,4.6969727E1,9.557422E1,5.1555664E1,4.069922E1,1.6742188E1,0E0,0E0,0E0,0E0,0E0,0E0,0E0,0E0,0E0,0E0,0E0,0E0,0E0,0E0,0E0,0E0,0E0,0E0,0E0,0E0,0E0,0E0,0E0,0E0,0E0,0E0,0E0,0E0,0E0,0E0,0E0,0E0],"parents":[2147483647,0,0,1,1,2,2,3,3,4,4,5,5,6,6,7,7,8,8,9,9,10,10,11,11,12,12,13,13,14,14,15,15,16,16,17,17,18,18,19,19,20,20,21,21,22,22,23,23,24,24,25,25,26,26,27,27,28,28,29,29,30,30],"right_children":[2,4,6,8,10,12,14,16,18,20,22,24,26,28,30,32,34,36,38,40,42,44,46,48,50,52,54,56,58,60,62,-1,-1,-1,-1,-1,-1,-1,-1,-1,-1,-1,-1,-1,-1,-1,-1,-1,-1,-1,-1,-1,-1,-1,-1,-1,-1,-1,-1,-1,-1,-1,-1],"split_conditions":[8.17469E1,6.6153206E1,9.538407E1,5.9305153E1,7.3480576E1,8.902776E1,1.0371607E2,5.556519E1,6.105368E1,7.273567E1,7.6217545E1,8.531459E1,9.289149E1,9.97563E1,1.0661341E2,6.2109882E1,7.2003746E1,6.546866E1,7.253617E1,6.845879E1,6.923572E1,7.6671974E1,8.3500656E1,7.503371E1,9.935247E1,9.143236E1,9.978936E1,1.0539401E2,9.884125E1,1.0651521E2,9.417803E1,-4.837203E-1,-4.0605688E-1,-3.933232E-1,-2.4569373E-1,-3.6456212E-1,-2.8028306E-1,-2.7295128E-1,-1.6535777E-1,-2.3627476E-1,-1.6573505E-1,-1.5488496E-1,-9.975872E-2,-1.1579815E-1,-5.6227636E-2,-2.8824313E-2,4.0471617E-2,-6.1994024E-2,5.7030346E-2,1.13378026E-1,2.1970224E-1,1.4062764E-1,2.0542836E-1,2.3038912E-1,3.0711788E-1,2.8490615E-1,3.9981955E-1,3.2415178E-1,3.97926E-1,3.7921843E-1,4.532588E-1,1.1010666E-1,4.778637E-1],"split_indices":[0,0,0,1,0,0,0,0,0,1,1,1,1,2,0,2,2,1,1,2,2,2,1,1,2,0,1,1,1,1,1,0,0,0,0,0,0,0,0,0,0,0,0,0,0,0,0,0,0,0,0,0,0,0,0,0,0,0,0,0,0,0,0],"split_type":[0,0,0,0,0,0,0,0,0,0,0,0,0,0,0,0,0,0,0,0,0,0,0,0,0,0,0,0,0,0,0,0,0,0,0,0,0,0,0,0,0,0,0,0,0,0,0,0,0,0,0,0,0,0,0,0,0,0,0,0,0,0,0],"sum_hessian":[4E3,2.078E3,1.922E3,1.047E3,1.031E3,9.52E2,9.7E2,5.84E2,4.63E2,5.15E2,5.16E2,5.15E2,4.37E2,5.31E2,4.39E2,3.34E2,2.5E2,1.69E2,2.94E2,3.54E2,1.61E2,2.04E2,3.12E2,2.63E2,2.52E2,2.52E2,1.85E2,3.14E2,2.17E2,2.03E2,2.36E2,2.75E2,5.9E1,2.35E2,1.5E1,1.43E2,2.6E1,2.73E2,2.1E1,1.74E2,1.8E2,5.3E1,1.08E2,1.12E2,9.2E1,2.33E2,7.9E1,2.2E1,2.41E2,2.28E2,2.4E1,1.25E2,1.27E2,1.48E2,3.7E1,2.88E2,2.6E1,7.4E1,1.43E2,1.22E2,8.1E1,1E0,2.35E2],"tree_param":{"num_deleted":"0","num_feature":"4","num_nodes":"63","size_leaf_vector":"1"}},{"base_weights":[-4.4161532E-4,-4.920276E0,4.6935806E0,-7.1689625E0,-2.4007044E0,2.3294706E0,7.237551E0,-8.320585E0,-5.7687826E0,-3.6474655E0,-1.343258E0,1.0107398E0,3.5669446E0,6.2074413E0,8.501716E0,-4.739829E-1,-7.78783E0,-6.4036245E0,-5.0926576E0,-4.3767414E0,-2.948155E0,-1.6954105E0,1.9952312E-1,2.5280392E-1,1.7276797E0,2.8281295E0,4.3339067E0,5.2529902E0,6.8050375E0,6.6519823E0,8.695604E0,-4.040342E-1,-2.9810372E-1,-3.6176524E-1,-2.9291448E-1,-2.619245E-1,-1.5910432E-1,-2.520788E-1,-1.8783668E-1,-1.6792382E-1,-1.0493809E-1,-1.0867684E-1,-4.8539925E-2,-7.7818916E-3,1.0402067E-1,-2.6019702E-2,4.6878163E-2,7.388034E-2,1.7204963E-1,1.2343831E-1,2.0867251E-1,1.8314838E-1,2.3903303E-1,1.5465707E-1,2.6883388E-1,2.8421602E-1,3.6274478E-1,2.060688E-1,3.500259E-1,3.3779252E-1,4.4268852E-1],"categories":[],"categories_nodes":[],"categories_segments":[],"categories_sizes":[],"default_left":[0,0,0,0,0,0,0,0,0,0,0,0,0,0,0,0,0,0,0,0,0,0,0,0,0,0,0,0,0,0,0,0,0,0,0,0,0,0,0,0,0,0,0,0,0,0,0,0,0,0,0,0,0,0,0,0,0,0,0,0,0],"id":22,"left_children":[1,3,5,7,9,11,13,15,17,19,21,23,25,27,29,-1,31,33,35,37,39,41,43,45,47,49,51,53,55,57,59,-1,-1,-1,-1,-1,-1,-1,-1,-1,-1,-1,-1,-1,-1,-1,-1,-1,-1,-1,-1,-1,-1,-1,-1,-1,-1,-1,-1,-1,-1],"loss_changes":[9.242144E4,1.1053621E4,1.2300277E4,1.6160781E3,1.2119683E3,1.7310991E3,1.2312188E3,2.744453E2,1.687002E2,2.0282275E2,2.7252856E2,2.7995477E2,2.9826416E2,2.7625E2,9.996094E1,0E0,1.6141797E2,6.555664E1,4.797119E1,6.556152E1,6.92782E1,1.3924402E2,6.311755E1,1.3391045E2,1.0845569E2,1.2603223E2,6.252002E1,4.0805176E1,1.26646484E2,1.1720459E1,6.136914E1,0E0,0E0,0E0,0E0,0E0,0E0,0E0,0E0,0E0,0E0,0E0,0E0,0E0,0E0,0E0,0E0,0E0,0E0,0E0,0E0,0E0,0E0,0E0,0E0,0E0,0E0,0E0,0E0,0E0,0E0],"parents":[2147483647,0,0,1,1,2,2,3,3,4,4,5,5,6,6,7,7,8,8,9,9,10,10,11,11,12,12,13,13,14,14,16,16,17,17,18,18,19,19,20,20,21,21,22,22,23,23,24,24,25,25,26,26,27,27,28,28,29,29,30,30],"right_children":[2,4,6,8,10,12,14,16,18,20,22,24,26,28,30,-1,32,34,36,38,40,42,44,46,48,50,52,54,56,58,60,-1,-1,-1,-1,-1,-1,-1,-1,-1,-1,-1,-1,-1,-1,-1,-1,-1,-1,-1,-1,-1,-1,-1,-1,-1,-1,-1,-1,-1,-1],"split_conditions":[7.972907E1,6.596015E1,9.5081055E1,5.8714386E1,7.210561E1,8.7203476E1,1.0371607E2,5.2230034E1,6.2879856E1,6.878396E1,8.1091934E1,8.3500656E1,9.143236E1,9.7506454E1,1.0037175E2,-4.739829E-1,6.0919662E1,5.902737E1,7.2880295E1,6.750708E1,7.2880295E1,7.61734E1,8.687859E1,8.019555E1,9.168222E1,9.6011246E1,9.0263435E1,8.780549E1,9.523824E1,3.8687244E1,9.6011246E1,-4.040342E-1,-2.9810372E-1,-3.6176524E-1,-2.9291448E-1,-2.619245E-1,-1.5910432E-1,-2.520788E-1,-1.8783668E-1,-1.6792382E-1,-1.0493809E-1,-1.0867684E-1,-4.8539925E-2,-7.7818916E-3,1.0402067E-1,-2.6019702E-2,4.6878163E-2,7.388034E-2,1.7204963E-1,1.2343831E-1,2.0867251E-1,1.8314838E-1,2.3903303E-1,1.5465707E-1,2.6883388E-1,2.8421602E-1,3.6274478E-1,2.060688E-1,3.500259E-1,3.3779252E-1,4.4268852E-1],"split_indices":[0,0,0,0,0,0,0,0,1,2,1,1,0,1,1,0,1,2,1,1,1,0,1,2,1,2,2,1,2,3,2,0,0,0,0,0,0,0,0,0,0,0,0,0,0,0,0,0,0,0,0,0,0,0,0,0,0,0,0,0,0],"split_type":[0,0,0,0,0,0,0,0,0,0,0,0,0,0,0,0,0,0,0,0,0,0,0,0,0,0,0,0,0,0,0,0,0,0,0,0,0,0,0,0,0,0,0,0,0,0,0,0,0,0,0,0,0,0,0,0,0,0,0,0,0],"sum_hessian":[4E3,1.953E3,2.047E3,1.031E3,9.22E2,1.062E3,9.85E2,5.63E2,4.68E2,4.22E2,5E2,5.15E2,5.47E2,5.46E2,4.39E2,1.72E2,3.91E2,2.37E2,2.31E2,2.04E2,2.18E2,4.07E2,9.3E1,2.51E2,2.64E2,2.81E2,2.66E2,2.14E2,3.32E2,4.5E1,3.94E2,3.34E2,5.7E1,8.9E1,1.48E2,2.13E2,1.8E1,9.5E1,1.09E2,1.45E2,7.3E1,2.44E2,1.63E2,7.9E1,1.4E1,1.18E2,1.33E2,2.32E2,3.2E1,2.24E2,5.7E1,1.1E2,1.56E2,1.3E1,2.01E2,9.9E1,2.33E2,7E0,3.8E1,3.3E1,3.61E2],"tree_param":{"num_deleted":"0","num_feature":"4","num_nodes":"61","size_leaf_vector":"1"}},{"base_weights":[-3.1993975E-4,-4.326515E0,4.8243484E0,-6.5717726E0,-1.6759369E0,2.8809266E0,7.223803E0,-7.8535385E0,-5.1971664E0,-2.7639143E0,-5.1494825E-1,1.8463106E0,4.2282414E0,6.155769E0,8.089823E0,-8.520254E0,-6.94686E0,-6.3915987E0,-4.6562552E0,-3.709882E0,-2.2826555E0,-1.1235726E0,1.3047554E-1,1.2108505E0,2.921089E0,3.5938003E0,4.8693266E0,4.803857E0,6.502461E0,7.1055717E0,8.541951E0,-4.377447E-1,-3.6494508E-1,-3.553175E-1,-2.1479885E-1,-3.3575314E-1,-2.740492E-1,-2.515982E-1,-1.9852029E-1,-2.1764198E-1,-1.5192036E-1,-1.4190845E-1,-8.034646E-2,-8.50185E-2,-2.8504366E-2,-3.3200884E-3,6.95046E-2,-6.1718244E-2,6.760431E-2,6.438916E-2,1.5910861E-1,1.19309954E-1,1.8981181E-1,2.046614E-1,2.5436047E-1,1.2948069E-1,2.4570039E-1,2.906265E-1,3.5392234E-1,3.139468E-1,3.8855284E-1,3.8606513E-1,4.4167715E-1],"categories":[],"categories_nodes":[],"categories_segments":[],"categories_sizes":[],"default_left":[0,0,0,0,0,0,0,0,0,0,0,0,0,0,0,0,0,0,0,0,0,0,0,0,0,0,0,0,0,0,0,0,0,0,0,0,0,0,0,0,0,0,0,0,0,0,0,0,0,0,0,0,0,0,0,0,0,0,0,0,0,0,0],"id":23,"left_children":[1,3,5,7,9,11,13,15,17,19,21,23,25,27,29,31,33,35,37,39,41,43,45,47,49,51,53,55,57,59,61,-1,-1,-1,-1,-1,-1,-1,-1,-1,-1,-1,-1,-1,-1,-1,-1,-1,-1,-1,-1,-1,-1,-1,-1,-1,-1,-1,-1,-1,-1,-1,-1],"loss_changes":[8.353158E4,1.2546082E4,8.801875E3,1.9712969E3,1.2225496E3,1.4516621E3,7.326953E2,2.9685938E2,3.2816797E2,2.1915894E2,1.847723E2,4.021526E2,1.6715674E2,1.4827441E2,1.4578906E2,3.2103516E1,7.72832E1,1.3269043E1,7.922754E1,5.887329E1,1.20814575E2,7.628885E1,5.688199E1,1.311759E2,8.971631E1,4.765674E1,1.6885742E1,7.274414E0,7.8868164E1,3.4823242E1,6.6914062E0,0E0,0E0,0E0,0E0,0E0,0E0,0E0,0E0,0E0,0E0,0E0,0E0,0E0,0E0,0E0,0E0,0E0,0E0,0E0,0E0,0E0,0E0,0E0,0E0,0E0,0E0,0E0,0E0,0E0,0E0,0E0,0E0],"parents":[2147483647,0,0,1,1,2,2,3,3,4,4,5,5,6,6,7,7,8,8,9,9,10,10,11,11,12,12,13,13,14,14,15,15,16,16,17,17,18,18,19,19,20,20,21,21,22,22,23,23,24,24,25,25,26,26,27,27,28,28,29,29,30,30],"right_children":[2,4,6,8,10,12,14,16,18,20,22,24,26,28,30,32,34,36,38,40,42,44,46,48,50,52,54,56,58,60,62,-1,-1,-1,-1,-1,-1,-1,-1,-1,-1,-1,-1,-1,-1,-1,-1,-1,-1,-1,-1,-1,-1,-1,-1,-1,-1,-1,-1,-1,-1,-1,-1],"split_conditions":[8.214956E1,6.747816E1,9.708585E1,5.9305153E1,7.483549E1,9.072564E1,1.0282932E2,5.556519E1,6.105368E1,6.898083E1,7.847436E1,8.8064095E1,9.440963E1,9.273206E1,1.0202167E2,6.2109882E1,7.2003746E1,6.3870247E1,6.750708E1,6.845879E1,7.361384E1,7.6671974E1,8.687859E1,7.503371E1,8.019555E1,8.159945E1,9.321218E1,8.993955E1,9.884125E1,1.0626594E2,1.0473513E2,-4.377447E-1,-3.6494508E-1,-3.553175E-1,-2.1479885E-1,-3.3575314E-1,-2.740492E-1,-2.515982E-1,-1.9852029E-1,-2.1764198E-1,-1.5192036E-1,-1.4190845E-1,-8.034646E-2,-8.50185E-2,-2.8504366E-2,-3.3200884E-3,6.95046E-2,-6.1718244E-2,6.760431E-2,6.438916E-2,1.5910861E-1,1.19309954E-1,1.8981181E-1,2.046614E-1,2.5436047E-1,1.2948069E-1,2.4570039E-1,2.906265E-1,3.5392234E-1,3.139468E-1,3.8855284E-1,3.8606513E-1,4.4167715E-1],"split_indices":[0,0,0,1,0,0,1,0,0,1,1,1,1,2,2,2,2,1,1,2,2,2,1,1,2,2,0,1,1,1,0,0,0,0,0,0,0,0,0,0,0,0,0,0,0,0,0,0,0,0,0,0,0,0,0,0,0,0,0,0,0,0,0],"split_type":[0,0,0,0,0,0,0,0,0,0,0,0,0,0,0,0,0,0,0,0,0,0,0,0,0,0,0,0,0,0,0,0,0,0,0,0,0,0,0,0,0,0,0,0,0,0,0,0,0,0,0,0,0,0,0,0,0,0,0,0,0,0,0],"sum_hessian":[4E3,2.109E3,1.891E3,1.141E3,9.68E2,1.046E3,8.45E2,5.88E2,5.53E2,4.99E2,4.69E2,5.93E2,4.53E2,3.82E2,4.63E2,3.34E2,2.54E2,1.69E2,3.84E2,1.66E2,3.33E2,2.41E2,2.28E2,3.74E2,2.19E2,2.31E2,2.22E2,8.1E1,3.01E2,1.51E2,3.12E2,2.75E2,5.9E1,2.38E2,1.6E1,1.2E2,4.9E1,2.44E2,1.4E2,8.2E1,8.4E1,1.81E2,1.52E2,1.17E2,1.24E2,1.98E2,3E1,2E1,3.54E2,3.1E1,1.88E2,3.5E1,1.96E2,5.3E1,1.69E2,5E0,7.6E1,1.42E2,1.59E2,7.2E1,7.9E1,8.9E1,2.23E2],"tree_param":{"num_deleted":"0","num_feature":"4","num_nodes":"63","size_leaf_vector":"1"}},{"base_weights":[-1.8569786E-4,-4.6977305E0,4.0138426E0,-6.976223E0,-2.8942482E0,1.5799029E0,6.2390532E0,-7.7779436E0,-5.953694E0,-4.2270594E0,-1.9065958E0,2.9387945E-1,2.527688E0,5.017776E0,7.415261E0,-8.494553E0,-7.242228E0,-7.0764403E0,-5.567277E0,-4.9875937E0,-3.753646E0,-2.4861197E0,-1.104752E0,-3.4971476E-1,8.0023474E-1,1.4349324E0,2.9733217E0,4.301717E0,5.9091754E0,6.5398297E0,8.023934E0,-4.5511323E-1,-3.8733736E-1,-3.79825E-1,-3.2061988E-1,-3.594475E-1,-1.4441839E-1,-2.9608747E-1,-2.4068575E-1,-2.7614427E-1,-2.2922127E-1,-2.3900545E-1,-1.7057697E-1,-1.5586427E-1,-1.0735365E-1,-5.9350222E-2,1.2258625E-1,-1.2146075E-1,-9.962876E-3,-8.542831E-3,5.4700375E-2,-3.02648E-2,8.017155E-2,1.2010819E-1,1.8242633E-1,1.4493118E-1,2.2698145E-1,2.4195583E-1,3.0931845E-1,3.1252572E-1,4.2146584E-1,3.3950022E-1,4.1244403E-1],"categories":[],"categories_nodes":[],"categories_segments":[],"categories_sizes":[],"default_left":[0,0,0,0,0,0,0,0,0,0,0,0,0,0,0,0,0,0,0,0,0,0,0,0,0,0,0,0,0,0,0,0,0,0,0,0,0,0,0,0,0,0,0,0,0,0,0,0,0,0,0,0,0,0,0,0,0,0,0,0,0,0,0],"id":24,"left_children":[1,3,5,7,9,11,13,15,17,19,21,23,25,27,29,31,33,35,37,39,41,43,45,47,49,51,53,55,57,59,61,-1,-1,-1,-1,-1,-1,-1,-1,-1,-1,-1,-1,-1,-1,-1,-1,-1,-1,-1,-1,-1,-1,-1,-1,-1,-1,-1,-1,-1,-1,-1,-1],"loss_changes":[7.546203E4,7.5572188E3,1.1677934E4,6.209961E2,1.3491016E3,1.2571348E3,1.5816953E3,1.12384766E2,1.1765625E2,1.38979E2,2.7327783E2,1.433444E2,2.8499316E2,3.2947266E2,2.523164E2,1.4923828E1,2.9488281E1,2.1172363E1,4.468457E1,1.0290039E1,7.99104E1,6.692114E1,7.633499E1,6.021389E1,7.0365845E1,6.0787476E1,1.535935E2,9.099072E1,4.27334E1,7.8509766E1,3.6421875E1,0E0,0E0,0E0,0E0,0E0,0E0,0E0,0E0,0E0,0E0,0E0,0E0,0E0,0E0,0E0,0E0,0E0,0E0,0E0,0E0,0E0,0E0,0E0,0E0,0E0,0E0,0E0,0E0,0E0,0E0,0E0,0E0],"parents":[2147483647,0,0,1,1,2,2,3,3,4,4,5,5,6,6,7,7,8,8,9,9,10,10,11,11,12,12,13,13,14,14,15,15,16,16,17,17,18,18,19,19,20,20,21,21,22,22,23,23,24,24,25,25,26,26,27,27,28,28,29,29,30,30],"right_children":[2,4,6,8,10,12,14,16,18,20,22,24,26,28,30,32,34,36,38,40,42,44,46,48,50,52,54,56,58,60,62,-1,-1,-1,-1,-1,-1,-1,-1,-1,-1,-1,-1,-1,-1,-1,-1,-1,-1,-1,-1,-1,-1,-1,-1,-1,-1,-1,-1,-1,-1,-1,-1],"split_conditions":[7.806855E1,6.2873997E1,9.321218E1,5.6888367E1,6.907972E1,8.4584816E1,1.01487686E2,5.1534363E1,5.349301E1,6.46681E1,7.4812485E1,8.051599E1,8.553592E1,9.850078E1,1.04293236E2,5.4737522E1,5.962057E1,9.330731E1,6.0715008E1,6.1148266E1,6.174991E1,6.920382E1,8.756228E1,7.0355415E1,7.554232E1,7.762466E1,9.1110725E1,8.993955E1,9.298111E1,1.0920079E2,9.913624E1,-4.5511323E-1,-3.8733736E-1,-3.79825E-1,-3.2061988E-1,-3.594475E-1,-1.4441839E-1,-2.9608747E-1,-2.4068575E-1,-2.7614427E-1,-2.2922127E-1,-2.3900545E-1,-1.7057697E-1,-1.5586427E-1,-1.0735365E-1,-5.9350222E-2,1.2258625E-1,-1.2146075E-1,-9.962876E-3,-8.542831E-3,5.4700375E-2,-3.02648E-2,8.017155E-2,1.2010819E-1,1.8242633E-1,1.4493118E-1,2.2698145E-1,2.4195583E-1,3.0931845E-1,3.1252572E-1,4.2146584E-1,3.3950022E-1,4.1244403E-1],"split_indices":[0,0,0,1,0,0,1,1,2,1,1,1,1,0,0,2,2,3,0,1,2,1,1,1,2,1,2,1,2,1,2,0,0,0,0,0,0,0,0,0,0,0,0,0,0,0,0,0,0,0,0,0,0,0,0,0,0,0,0,0,0,0,0],"split_type":[0,0,0,0,0,0,0,0,0,0,0,0,0,0,0,0,0,0,0,0,0,0,0,0,0,0,0,0,0,0,0,0,0,0,0,0,0,0,0,0,0,0,0,0,0,0,0,0,0,0,0,0,0,0,0,0,0,0,0,0,0,0,0],"sum_hessian":[4E3,1.843E3,2.157E3,8.13E2,1.03E3,1.031E3,1.126E3,4.52E2,3.61E2,4.37E2,5.93E2,4.38E2,5.93E2,5.55E2,5.71E2,1.87E2,2.65E2,8.8E1,2.73E2,1.64E2,2.73E2,3.43E2,2.5E2,1.93E2,2.45E2,1.73E2,4.2E2,3.11E2,2.44E2,2.39E2,3.32E2,9.7E1,9E1,1.8E2,8.5E1,8.5E1,3E0,1.81E2,9.2E1,6.5E1,9.9E1,6.5E1,2.08E2,1.17E2,2.26E2,2.45E2,5E0,1.2E1,1.81E2,5.7E1,1.88E2,1.3E1,1.6E2,2.3E2,1.9E2,4.7E1,2.64E2,5.4E1,1.9E2,2.11E2,2.8E1,5.6E1,2.76E2],"tree_param":{"num_deleted":"0","num_feature":"4","num_nodes":"63","size_leaf_vector":"1"}},{"base_weights":[-4.320047E-4,-3.8800092E0,4.3917375E0,-5.9375935E0,-1.4880971E0,2.636407E0,6.5278E0,-7.149506E0,-4.7468233E0,-2.5015934E0,-4.4018722E-1,1.7012789E0,3.8231971E0,5.5608816E0,7.3118563E0,-8.197889E0,-6.668588E0,-5.31135E0,-4.0087132E0,-3.3496478E0,-2.0700762E0,-8.931007E-1,2.990946E-1,1.129631E0,2.642725E0,3.2486064E0,4.403833E0,4.3275094E0,5.8773575E0,6.410125E0,7.726397E0,-4.1356945E-1,-2.3867968E-1,-3.4636334E-1,-2.529761E-1,-3.0428663E-1,-2.4377957E-1,-2.135661E-1,-1.437264E-1,-1.9746453E-1,-1.3623534E-1,-1.2952885E-1,-7.186945E-2,-6.415042E-2,-1.2565526E-2,3.499678E-3,6.761134E-2,-7.1432926E-2,6.2216856E-2,5.646422E-2,1.4437887E-1,1.0670308E-1,1.7178947E-1,1.9820902E-1,2.3807275E-1,2.4230964E-1,1.845313E-1,2.5771746E-1,3.1760344E-1,2.8210375E-1,3.515422E-1,3.670976E-1,4.149745E-1],"categories":[],"categories_nodes":[],"categories_segments":[],"categories_sizes":[],"default_left":[0,0,0,0,0,0,0,0,0,0,0,0,0,0,0,0,0,0,0,0,0,0,0,0,0,0,0,0,0,0,0,0,0,0,0,0,0,0,0,0,0,0,0,0,0,0,0,0,0,0,0,0,0,0,0,0,0,0,0,0,0,0,0],"id":25,"left_children":[1,3,5,7,9,11,13,15,17,19,21,23,25,27,29,31,33,35,37,39,41,43,45,47,49,51,53,55,57,59,61,-1,-1,-1,-1,-1,-1,-1,-1,-1,-1,-1,-1,-1,-1,-1,-1,-1,-1,-1,-1,-1,-1,-1,-1,-1,-1,-1,-1,-1,-1,-1,-1],"loss_changes":[6.8193125E4,1.044948E4,7.0205938E3,1.6140938E3,1.0439587E3,1.13881E3,6.0070703E2,2.296914E2,2.1996777E2,1.7604077E2,1.6266E2,3.086184E2,1.3716064E2,1.2406348E2,1.2391992E2,4.0585938E0,1.2811328E2,7.999805E1,6.367285E1,5.1821167E1,1.0626721E2,7.499951E1,4.4540977E1,1.0800708E2,7.752319E1,4.1068604E1,1.6187012E1,9.202515E0,7.091211E1,3.2796875E1,8.025391E0,0E0,0E0,0E0,0E0,0E0,0E0,0E0,0E0,0E0,0E0,0E0,0E0,0E0,0E0,0E0,0E0,0E0,0E0,0E0,0E0,0E0,0E0,0E0,0E0,0E0,0E0,0E0,0E0,0E0,0E0,0E0,0E0],"parents":[2147483647,0,0,1,1,2,2,3,3,4,4,5,5,6,6,7,7,8,8,9,9,10,10,11,11,12,12,13,13,14,14,15,15,16,16,17,17,18,18,19,19,20,20,21,21,22,22,23,23,24,24,25,25,26,26,27,27,28,28,29,29,30,30],"right_children":[2,4,6,8,10,12,14,16,18,20,22,24,26,28,30,32,34,36,38,40,42,44,46,48,50,52,54,56,58,60,62,-1,-1,-1,-1,-1,-1,-1,-1,-1,-1,-1,-1,-1,-1,-1,-1,-1,-1,-1,-1,-1,-1,-1,-1,-1,-1,-1,-1,-1,-1,-1,-1],"split_conditions":[8.232491E1,6.747816E1,9.708585E1,5.8714386E1,7.483549E1,9.072564E1,1.0282932E2,5.2230034E1,6.46681E1,6.898083E1,8.051599E1,8.8064095E1,9.440963E1,9.273206E1,1.0202167E2,6.923572E1,6.0919662E1,5.902737E1,7.313823E1,6.845879E1,7.361384E1,8.03534E1,8.687859E1,7.45374E1,8.019555E1,8.159945E1,9.4953995E1,6.116633E1,9.814842E1,1.0626594E2,1.0885354E2,-4.1356945E-1,-2.3867968E-1,-3.4636334E-1,-2.529761E-1,-3.0428663E-1,-2.4377957E-1,-2.135661E-1,-1.437264E-1,-1.9746453E-1,-1.3623534E-1,-1.2952885E-1,-7.186945E-2,-6.415042E-2,-1.2565526E-2,3.499678E-3,6.761134E-2,-7.1432926E-2,6.2216856E-2,5.646422E-2,1.4437887E-1,1.0670308E-1,1.7178947E-1,1.9820902E-1,2.3807275E-1,2.4230964E-1,1.845313E-1,2.5771746E-1,3.1760344E-1,2.8210375E-1,3.515422E-1,3.670976E-1,4.149745E-1],"split_indices":[0,0,0,0,0,0,1,0,1,1,1,1,1,2,2,2,1,2,2,2,2,2,1,1,2,2,2,3,1,1,1,0,0,0,0,0,0,0,0,0,0,0,0,0,0,0,0,0,0,0,0,0,0,0,0,0,0,0,0,0,0,0,0],"split_type":[0,0,0,0,0,0,0,0,0,0,0,0,0,0,0,0,0,0,0,0,0,0,0,0,0,0,0,0,0,0,0,0,0,0,0,0,0,0,0,0,0,0,0,0,0,0,0,0,0,0,0,0,0,0,0,0,0,0,0,0,0,0,0],"sum_hessian":[4E3,2.124E3,1.876E3,1.141E3,9.83E2,1.031E3,8.45E2,5.63E2,5.78E2,4.99E2,4.84E2,5.78E2,4.53E2,3.82E2,4.63E2,1.72E2,3.91E2,3.24E2,2.54E2,1.66E2,3.33E2,3E2,1.84E2,3.61E2,2.17E2,2.31E2,2.22E2,8.1E1,3.01E2,1.51E2,3.12E2,1.67E2,5E0,3.34E2,5.7E1,1.12E2,2.12E2,2.04E2,5E1,8.2E1,8.4E1,1.81E2,1.52E2,1.86E2,1.14E2,1.52E2,3.2E1,1.5E1,3.46E2,3.1E1,1.86E2,3.5E1,1.96E2,1.05E2,1.17E2,4.1E1,4E1,1.24E2,1.77E2,7.2E1,7.9E1,1.95E2,1.17E2],"tree_param":{"num_deleted":"0","num_feature":"4","num_nodes":"63","size_leaf_vector":"1"}},{"base_weights":[-2.5397819E-4,-3.6290495E0,4.242192E0,-5.642602E0,-1.3622134E0,2.5780334E0,6.2042675E0,-6.7495713E0,-4.455512E0,-2.237052E0,-2.0727281E-1,1.7769742E0,3.7408125E0,5.285453E0,6.9493146E0,-7.3339353E0,-5.955409E0,-5.4948397E0,-3.9850154E0,-2.8883731E0,-1.6322409E0,-5.0134325E-1,7.098555E-1,1.3072494E0,2.7027733E0,2.8068197E0,3.9859707E0,4.81511E0,3.038225E-1,6.093788E0,7.3425756E0,-3.771819E-1,-3.123535E-1,-3.0495688E-1,-1.792215E-1,-3.6406985E-1,-2.6565334E-1,-2.0551603E-1,-1.2107607E-1,-1.744406E-1,-1.2266914E-1,-1.15747765E-1,-5.2567553E-2,-1.853173E-1,-2.1560075E-2,2.3614248E-2,9.291359E-2,2.7720217E-2,8.085813E-2,1.2669438E-1,2.3767431E-1,-1.0502625E-3,1.4708641E-1,1.2425118E-1,2.0336013E-1,2.0937617E-1,2.6317877E-1,2.6819175E-1,3.3418494E-1,3.4883642E-1,3.9440146E-1],"categories":[],"categories_nodes":[],"categories_segments":[],"categories_sizes":[],"default_left":[0,0,0,0,0,0,0,0,0,0,0,0,0,0,0,0,0,0,0,0,0,0,0,0,0,0,0,0,0,0,0,0,0,0,0,0,0,0,0,0,0,0,0,0,0,0,0,0,0,0,0,0,0,0,0,0,0,0,0,0,0],"id":26,"left_children":[1,3,5,7,9,11,13,15,17,19,21,23,25,27,29,31,33,35,37,39,41,43,45,47,49,51,53,55,-1,57,59,-1,-1,-1,-1,-1,-1,-1,-1,-1,-1,-1,-1,-1,-1,-1,-1,-1,-1,-1,-1,-1,-1,-1,-1,-1,-1,-1,-1,-1,-1],"loss_changes":[6.1610664E4,9.837711E3,6.0083086E3,1.4705977E3,1.0260894E3,9.248081E2,5.4240625E2,2.2966602E2,2.4900977E2,2.2297461E2,1.18754326E2,2.5478015E2,8.200488E1,1.1323242E2,1.11365234E2,2.9228516E1,6.503711E1,1.6520508E1,6.547363E1,6.3789062E1,1.173338E2,7.3261734E1,2.8315159E1,9.1496765E1,5.68761E1,3.3633545E1,2.8908691E1,4.6914062E1,0E0,2.960205E1,7.4296875E0,0E0,0E0,0E0,0E0,0E0,0E0,0E0,0E0,0E0,0E0,0E0,0E0,0E0,0E0,0E0,0E0,0E0,0E0,0E0,0E0,0E0,0E0,0E0,0E0,0E0,0E0,0E0,0E0,0E0,0E0],"parents":[2147483647,0,0,1,1,2,2,3,3,4,4,5,5,6,6,7,7,8,8,9,9,10,10,11,11,12,12,13,13,14,14,15,15,16,16,17,17,18,18,19,19,20,20,21,21,22,22,23,23,24,24,25,25,26,26,27,27,29,29,30,30],"right_children":[2,4,6,8,10,12,14,16,18,20,22,24,26,28,30,32,34,36,38,40,42,44,46,48,50,52,54,56,-1,58,60,-1,-1,-1,-1,-1,-1,-1,-1,-1,-1,-1,-1,-1,-1,-1,-1,-1,-1,-1,-1,-1,-1,-1,-1,-1,-1,-1,-1,-1,-1],"split_conditions":[8.278902E1,6.747816E1,9.708585E1,5.9305153E1,7.61734E1,9.143236E1,1.0282932E2,5.556519E1,6.105368E1,7.177018E1,8.3500656E1,8.919786E1,8.993955E1,1.0202167E2,1.0202167E2,6.2109882E1,7.2003746E1,5.2230034E1,7.253617E1,6.798012E1,7.350115E1,6.690919E1,8.96702E1,8.054792E1,9.863857E1,8.3017975E1,8.03534E1,9.7316765E1,3.038225E-1,1.0626594E2,1.0885354E2,-3.771819E-1,-3.123535E-1,-3.0495688E-1,-1.792215E-1,-3.6406985E-1,-2.6565334E-1,-2.0551603E-1,-1.2107607E-1,-1.744406E-1,-1.2266914E-1,-1.15747765E-1,-5.2567553E-2,-1.853173E-1,-2.1560075E-2,2.3614248E-2,9.291359E-2,2.7720217E-2,8.085813E-2,1.2669438E-1,2.3767431E-1,-1.0502625E-3,1.4708641E-1,1.2425118E-1,2.0336013E-1,2.0937617E-1,2.6317877E-1,2.6819175E-1,3.3418494E-1,3.4883642E-1,3.9440146E-1],"split_indices":[0,0,0,1,0,0,1,0,0,1,1,1,1,2,2,2,2,0,1,2,2,1,1,2,1,1,2,1,0,1,1,0,0,0,0,0,0,0,0,0,0,0,0,0,0,0,0,0,0,0,0,0,0,0,0,0,0,0,0,0,0],"split_type":[0,0,0,0,0,0,0,0,0,0,0,0,0,0,0,0,0,0,0,0,0,0,0,0,0,0,0,0,0,0,0,0,0,0,0,0,0,0,0,0,0,0,0,0,0,0,0,0,0,0,0,0,0,0,0,0,0,0,0,0,0],"sum_hessian":[4E3,2.156E3,1.844E3,1.141E3,1.015E3,9.99E2,8.45E2,5.88E2,5.53E2,5.77E2,4.38E2,5.93E2,4.06E2,3.82E2,4.63E2,3.34E2,2.54E2,1.69E2,3.84E2,2.76E2,3.01E2,3.32E2,1.06E2,3.95E2,1.98E2,8.7E1,3.19E2,2.44E2,1.38E2,1.51E2,3.12E2,2.75E2,5.9E1,2.38E2,1.6E1,1.2E1,1.57E2,3.54E2,3E1,1.13E2,1.63E2,1.37E2,1.64E2,6E0,3.26E2,8.9E1,1.7E1,1.16E2,2.79E2,1.85E2,1.3E1,4E0,8.3E1,1.8E1,3.01E2,1.06E2,1.38E2,7.2E1,7.9E1,1.95E2,1.17E2],"tree_param":{"num_deleted":"0","num_feature":"4","num_nodes":"61","size_leaf_vector":"1"}},{"base_weights":[-1.4583088E-4,-4.0347624E0,3.4474134E0,-5.995837E0,-2.4825318E0,1.3479393E0,5.3668547E0,-6.908203E0,-5.313365E0,-3.6253893E0,-1.6356391E0,5.7913905E-1,2.5913794E0,3.9728894E0,6.1706815E0,-7.4259157E0,-6.3505583E0,-6.1380906E0,-4.838556E0,-4.2874527E0,-3.2134702E0,-2.1427703E0,-9.340901E-1,2.146887E-2,1.2172064E0,1.4766214E0,2.8841393E0,3.4156106E0,4.368979E0,5.6887274E0,7.114654E0,-3.7465736E-1,-2.15289E-1,-3.2609946E-1,-2.3089015E-1,-3.2279414E-1,-2.6838964E-1,-2.610898E-1,-2.1216094E-1,-2.154131E-1,-2.186947E-2,-2.077221E-1,-1.4504729E-1,-1.1858839E-1,-7.195226E-2,-5.0456148E-2,1.1489703E-1,-4.6688E-2,1.3097043E-2,5.4226883E-2,1.5541308E-1,-3.0839268E-2,8.2278006E-2,1.1706579E-1,1.761001E-1,5.7966996E-2,1.7863384E-1,1.7625093E-1,2.4231143E-1,2.5238106E-1,3.122934E-1,1.231444E-1,3.5718817E-1],"categories":[],"categories_nodes":[],"categories_segments":[],"categories_sizes":[],"default_left":[0,0,0,0,0,0,0,0,0,0,0,0,0,0,0,0,0,0,0,0,0,0,0,0,0,0,0,0,0,0,0,0,0,0,0,0,0,0,0,0,0,0,0,0,0,0,0,0,0,0,0,0,0,0,0,0,0,0,0,0,0,0,0],"id":27,"left_children":[1,3,5,7,9,11,13,15,17,19,21,23,25,27,29,31,33,35,37,39,41,43,45,47,49,51,53,55,57,59,61,-1,-1,-1,-1,-1,-1,-1,-1,-1,-1,-1,-1,-1,-1,-1,-1,-1,-1,-1,-1,-1,-1,-1,-1,-1,-1,-1,-1,-1,-1,-1,-1],"loss_changes":[5.566614E4,5.598324E3,8.689111E3,4.7014258E2,9.9195215E2,9.85047E2,1.238293E3,5.2441406E1,1.5434766E2,1.0567236E2,2.093302E2,2.2734996E2,1.2432568E2,7.668115E1,2.8390625E2,4.026367E0,2.127246E1,6.470703E0,4.6973633E1,1.1334717E1,6.85249E1,5.202295E1,6.3188583E1,7.880398E1,7.1392365E1,3.0722183E1,9.943652E1,5.8583984E1,7.918115E1,1.3885254E2,1.449707E1,0E0,0E0,0E0,0E0,0E0,0E0,0E0,0E0,0E0,0E0,0E0,0E0,0E0,0E0,0E0,0E0,0E0,0E0,0E0,0E0,0E0,0E0,0E0,0E0,0E0,0E0,0E0,0E0,0E0,0E0,0E0,0E0],"parents":[2147483647,0,0,1,1,2,2,3,3,4,4,5,5,6,6,7,7,8,8,9,9,10,10,11,11,12,12,13,13,14,14,15,15,16,16,17,17,18,18,19,19,20,20,21,21,22,22,23,23,24,24,25,25,26,26,27,27,28,28,29,29,30,30],"right_children":[2,4,6,8,10,12,14,16,18,20,22,24,26,28,30,32,34,36,38,40,42,44,46,48,50,52,54,56,58,60,62,-1,-1,-1,-1,-1,-1,-1,-1,-1,-1,-1,-1,-1,-1,-1,-1,-1,-1,-1,-1,-1,-1,-1,-1,-1,-1,-1,-1,-1,-1,-1,-1],"split_conditions":[7.806855E1,6.2873997E1,9.310167E1,5.5171474E1,6.907972E1,8.764879E1,9.883683E1,5.2230034E1,5.6617947E1,6.46681E1,7.4812485E1,8.329043E1,8.553592E1,9.674374E1,1.0661341E2,6.923572E1,6.0042706E1,6.1189735E1,6.174991E1,9.468271E1,6.174991E1,7.761045E1,8.756228E1,7.569443E1,9.809215E1,3.4457893E1,9.145422E1,8.159945E1,9.378432E1,1.0138691E2,9.440963E1,-3.7465736E-1,-2.15289E-1,-3.2609946E-1,-2.3089015E-1,-3.2279414E-1,-2.6838964E-1,-2.610898E-1,-2.1216094E-1,-2.154131E-1,-2.186947E-2,-2.077221E-1,-1.4504729E-1,-1.1858839E-1,-7.195226E-2,-5.0456148E-2,1.1489703E-1,-4.6688E-2,1.3097043E-2,5.4226883E-2,1.5541308E-1,-3.0839268E-2,8.2278006E-2,1.1706579E-1,1.761001E-1,5.7966996E-2,1.7863384E-1,1.7625093E-1,2.4231143E-1,2.5238106E-1,3.122934E-1,1.231444E-1,3.5718817E-1],"split_indices":[0,0,1,0,0,0,0,0,1,1,1,0,1,1,0,2,1,2,2,3,